<?xml version="1.0"?>
<opencv_storage>
<opencv_ml_svm>
  <format>3</format>
  <svmType>C_SVC</svmType>
  <kernel>
    <type>LINEAR</type></kernel>
  <C>1.0000000000000001e-01</C>
  <term_criteria><iterations>300</iterations></term_criteria>
  <var_count>1764</var_count>
  <class_count>2</class_count>
  <class_labels type_id="opencv-matrix">
    <rows>2</rows>
    <cols>1</cols>
    <dt>i</dt>
    <data>
      0 1</data></class_labels>
  <sv_total>1</sv_total>
  <support_vectors>
    <_>
      -1.27444684e-03 -4.67084423e-02 1.03166299e-02 5.10657839e-02
      -1.55789370e-03 -1.53574143e-02 -4.98291813e-02 -4.61038947e-02
      -2.69031581e-02 4.75684293e-02 -1.00656366e-02 4.92460057e-02
      4.53390032e-02 1.15289744e-02 -4.51388471e-02 -8.78312662e-02
      -5.18010706e-02 1.64588224e-02 1.62868220e-02 -2.59372480e-02
      3.09737469e-03 3.68099101e-02 2.05758382e-02 -2.03920528e-02
      -2.74007246e-02 -5.74994124e-02 -5.74672930e-02 5.81665151e-02
      6.41679671e-03 5.47677316e-02 3.20684649e-02 3.25826034e-02
      -2.98040770e-02 -3.41919586e-02 -2.93899067e-02 -1.19727319e-02
      3.07722222e-02 3.56510170e-02 6.50749505e-02 5.03399149e-02
      2.42780261e-02 -4.63080592e-02 -6.47109374e-02 -3.23177874e-02
      -7.78460968e-03 3.62062193e-02 3.12050506e-02 5.35799377e-02
      4.10414208e-03 -1.63490903e-02 -7.96596780e-02 -5.80620095e-02
      -4.55521047e-02 1.78857073e-02 3.20968702e-02 5.13338260e-02
      7.16462806e-02 4.10914123e-02 6.86354935e-02 3.43172671e-03
      -4.92359847e-02 -5.50057814e-02 -3.24844718e-02 5.98574616e-02
      6.63948804e-02 6.08681627e-02 5.59373107e-03 -2.34062178e-03
      -3.49773206e-02 -5.06965630e-02 -1.05011962e-01 -5.64173935e-03
      2.39936747e-02 2.57182308e-02 7.08701136e-03 -9.01436713e-03
      -2.66683660e-02 -4.40697074e-02 -1.79085955e-02 6.75017480e-04
      -1.90073475e-02 3.51938643e-02 5.70118017e-02 6.03427086e-03
      -7.12862331e-03 -1.55243548e-02 2.72276923e-02 5.62571920e-02
      6.78176954e-02 -1.70164630e-02 5.87874763e-02 4.63878065e-02
      1.18032172e-02 -2.47358736e-02 -3.29865068e-02 -5.67679740e-02
      -1.55079942e-02 -1.16272252e-02 2.69908495e-02 4.69266362e-02
      4.98250425e-02 2.84447446e-02 -1.01463059e-02 -2.94819754e-02
      4.68360260e-03 3.05347722e-02 5.41859269e-02 3.82517986e-02
      1.44600058e-02 2.10588593e-02 -2.19734516e-02 -3.04808300e-02
      -5.00332452e-02 1.76085043e-03 1.16507187e-02 5.39834425e-02
      -9.77320503e-03 1.87400375e-02 7.76243657e-02 5.43296337e-04
      -6.63351873e-03 -2.94059142e-02 -7.71010481e-03 -4.26378706e-03
      5.17153814e-02 -3.17780278e-03 4.90906127e-02 5.85959964e-02
      -4.27277060e-03 -4.46323119e-02 -7.58043602e-02 -2.75075212e-02
      -1.76025573e-02 2.88707465e-02 3.36514711e-02 -1.19805820e-02
      2.96984124e-03 -1.73056107e-02 -5.95149361e-02 -6.68064579e-02
      -4.31932276e-03 2.58363807e-03 1.59686338e-02 2.62969546e-03
      1.05379904e-02 5.68729602e-02 -7.99958967e-03 -4.87272553e-02
      -5.67699932e-02 -2.75276210e-02 3.73985097e-02 6.78247809e-02
      -3.89930373e-03 1.10992957e-02 -4.75491360e-02 -2.58352719e-02
      -5.63338958e-02 -6.27422482e-02 1.14907436e-02 7.37489834e-02
      1.43124625e-01 8.98043662e-02 -1.23318946e-02 -5.93989342e-03
      -4.32544090e-02 -5.31603917e-02 -4.14015427e-02 8.87768995e-03
      3.09504736e-02 1.34198423e-02 -1.38270464e-02 2.41560792e-03
      -2.16669012e-02 -3.10637318e-02 -3.97512354e-02 -3.19072269e-02
      1.73926854e-03 6.60017580e-02 6.55474439e-02 5.30716293e-02
      -1.55469924e-02 -9.03673768e-02 -7.03749135e-02 -5.10509610e-02
      -2.16517765e-02 5.11854850e-02 6.26010373e-02 9.17743593e-02
      5.79763390e-02 3.65124033e-05 -5.84744811e-02 -5.17868549e-02
      -2.76416484e-02 -3.50469351e-03 4.30527963e-02 3.62550095e-02
      5.78145087e-02 6.73486991e-03 -2.92080604e-02 -2.93022078e-02
      -6.90659359e-02 -8.12588930e-02 -8.96815024e-03 5.42491749e-02
      8.62722024e-02 8.29472318e-02 3.13934609e-02 -1.77562963e-02
      -3.60805094e-02 -8.70797262e-02 -4.29187827e-02 -7.47320009e-05
      7.08500668e-02 3.47727947e-02 4.91895676e-02 2.93924771e-02
      -2.12385170e-02 -6.96449056e-02 -9.57819894e-02 -6.01030737e-02
      -1.80377136e-03 2.92832293e-02 2.47441176e-02 8.07025284e-02
      3.59896570e-02 -2.35294383e-02 -9.33560058e-02 -7.91509897e-02
      -4.53198813e-02 2.95162341e-03 7.18965381e-02 8.07350725e-02
      1.56880647e-01 8.73504058e-02 -1.57141145e-02 -9.97461453e-02
      -1.40601903e-01 -4.47441973e-02 5.77915879e-03 4.09807004e-02
      -8.44332576e-03 6.97850063e-02 8.28958377e-02 -9.77412891e-03
      -9.76050943e-02 -1.11359172e-01 -6.96201697e-02 -3.43473554e-02
      2.80576609e-02 3.09015177e-02 1.28363371e-01 7.50317872e-02
      -2.55618319e-02 -2.27385014e-03 3.72559763e-02 4.63538840e-02
      4.55841757e-02 -5.48183871e-03 -2.78002862e-02 -1.04303978e-01
      -8.97174478e-02 4.74702625e-04 2.67571285e-02 6.59153834e-02
      2.84307469e-02 2.50470620e-02 1.23655249e-03 -3.12493299e-04
      -2.73282845e-02 -5.87324202e-02 -2.95017753e-02 3.45997512e-02
      5.10571152e-02 3.78491357e-02 3.72123048e-02 1.55288456e-02
      -6.28949329e-02 -6.86011389e-02 -3.05056758e-02 1.55935371e-02
      2.04487965e-02 2.38553155e-02 -1.49185825e-02 -9.96356457e-03
      -1.19534479e-02 6.88769063e-03 -3.21317054e-02 -8.71839840e-03
      2.04003341e-02 2.97319572e-02 7.94924498e-02 4.07720208e-02
      3.41989547e-02 2.57438496e-02 -1.85088292e-02 -4.08291593e-02
      -5.64069971e-02 4.04164381e-02 2.99998540e-02 6.36423677e-02
      3.68318819e-02 2.55288910e-02 1.04537769e-03 -4.21314314e-02
      -8.35204870e-02 7.72387069e-03 2.42888425e-02 2.99306195e-02
      4.80538793e-02 1.85927935e-02 -7.31919613e-03 -1.20907323e-02
      -1.45173650e-02 -3.77640054e-02 -8.35901126e-03 1.66395381e-02
      -1.48837017e-02 2.01639291e-02 4.44259346e-02 2.68900152e-02
      -1.78586096e-02 -9.64299403e-03 -6.89483881e-02 -2.59041842e-02
      3.20889205e-02 2.50872523e-02 7.16987113e-03 1.21619329e-02
      -3.10787838e-03 -1.79539640e-02 -2.62304507e-02 -5.48058338e-02
      8.63332301e-04 4.59656790e-02 5.79948165e-02 5.20279370e-02
      4.01237328e-03 2.70694327e-02 -4.43054130e-03 2.32322216e-02
      2.50647850e-02 5.20530827e-02 2.66407877e-02 -1.24274585e-02
      -9.54010291e-04 1.03261173e-02 3.82906906e-02 -1.04118753e-02
      1.68924928e-02 -4.17673364e-02 -2.01911144e-02 5.86080998e-02
      1.16268890e-02 3.34480554e-02 2.78673973e-02 3.18285562e-02
      -3.79306227e-02 -1.40495263e-02 -1.66147184e-02 2.41329856e-02
      4.89479937e-02 3.83853316e-02 2.87239216e-02 -7.49162026e-03
      2.46837764e-04 -4.31544036e-02 1.58505188e-03 5.15969060e-02
      7.87863061e-02 2.40471214e-02 -5.56531770e-04 -3.35250907e-02
      -4.74666879e-02 -4.69821319e-02 -1.31998304e-02 2.29877327e-02
      4.69423085e-02 3.88915539e-02 4.15108353e-02 -3.15304361e-02
      -2.94191651e-02 -2.42441520e-02 8.07703938e-03 -1.04564894e-02
      -4.93723492e-04 -9.45710856e-03 3.67731526e-02 1.65433101e-02
      -2.51432285e-02 -2.21729651e-02 -4.51800488e-02 -3.18258964e-02
      -1.46871025e-03 -3.70695163e-03 -3.58692370e-02 2.18407139e-02
      4.57144622e-03 -1.30269621e-02 -4.48552929e-02 -9.06817392e-02
      -3.10651548e-02 1.01139462e-02 1.55805843e-02 4.14528127e-04
      -2.03639790e-02 1.06928963e-02 2.02935692e-02 1.37808295e-02
      -3.83967087e-02 -6.32231589e-03 4.45616916e-02 5.91316968e-02
      7.61563405e-02 4.85968925e-02 -1.45757766e-02 -3.72714438e-02
      -3.44944671e-02 -4.40593325e-02 -5.04744574e-02 -3.50331957e-03
      -1.74222030e-02 -3.21679376e-02 -2.39770003e-02 -1.91901848e-02
      1.53422710e-02 -8.35676678e-03 -6.28204793e-02 -2.46103071e-02
      3.43106734e-03 1.11331558e-02 2.64333002e-02 1.54492799e-02
      2.29207147e-03 1.13487365e-02 -4.01853621e-02 -7.00784773e-02
      4.29435400e-03 4.76429947e-02 7.78034851e-02 1.09685123e-01
      7.36455768e-02 4.84562200e-03 -6.52005002e-02 -9.52996686e-02
      -6.52455613e-02 3.86883467e-02 5.05200475e-02 4.89123203e-02
      8.75397995e-02 5.09279855e-02 -2.04965863e-02 -2.97026467e-02
      -7.63307810e-02 -8.73893276e-02 -4.81760018e-02 3.26079479e-03
      3.73730510e-02 6.30139634e-02 5.46029285e-02 -3.57377604e-02
      -5.39522246e-02 -6.85458705e-02 -6.34466559e-02 1.36077711e-02
      2.48251688e-02 3.18161026e-02 5.64480647e-02 1.27155026e-02
      6.02395413e-03 -7.98324049e-02 -9.08914208e-02 -4.50831875e-02
      4.49312478e-02 5.26154675e-02 1.65410861e-02 7.60999620e-02
      6.75513595e-02 -3.20061459e-03 -5.83778396e-02 -7.48053044e-02
      -6.49296939e-02 1.79396067e-02 7.24081323e-02 6.35149255e-02
      1.00053385e-01 7.83918351e-02 -7.25534633e-02 -9.20061395e-02
      -7.76387155e-02 -4.68736589e-02 3.67063135e-02 5.27849756e-02
      1.62389427e-02 3.94110713e-04 -2.71738973e-02 -4.51742560e-02
      -6.86606094e-02 -7.16710687e-02 -4.57094125e-02 1.41934296e-02
      6.52205050e-02 6.16447814e-02 3.03876922e-02 3.05167772e-02
      -6.14834838e-02 -1.06877694e-02 2.07942203e-02 2.27554012e-02
      3.34179848e-02 6.39152015e-03 -2.34787967e-02 -6.22275509e-02
      -6.64194077e-02 2.75081079e-02 -4.82600182e-03 1.71508116e-03
      -2.93171909e-02 1.80122033e-02 -2.93043964e-02 -8.21679551e-03
      -9.74037778e-03 1.43873990e-02 -7.74599090e-02 -2.29535829e-02
      2.94970199e-02 5.61843030e-02 4.37675752e-02 2.15812400e-02
      2.41654757e-02 -3.07034440e-02 -9.87916887e-02 -5.09921610e-02
      -3.47555242e-02 -6.62872195e-03 1.63396560e-02 5.65294139e-02
      9.80840251e-03 -2.34541427e-02 -2.17241198e-02 -4.45012748e-02
      2.13587042e-02 1.29608391e-02 1.70048662e-02 1.54072428e-02
      1.40445046e-02 -9.37723555e-03 5.31170191e-03 -4.85990979e-02
      2.00906023e-03 -9.76282638e-03 -8.61076545e-03 2.14360896e-02
      1.20432666e-02 2.10352167e-02 2.02484522e-02 2.05422658e-02
      -4.12308797e-02 -3.67668681e-02 -4.34918255e-02 -5.31218434e-03
      2.87933815e-02 4.35806252e-02 4.55637611e-02 -4.77470038e-03
      -2.29156166e-02 -2.02143230e-02 -1.61588993e-02 -4.37889695e-02
      -4.33927262e-03 4.25206609e-02 3.99758965e-02 -1.47201575e-03
      2.89058685e-02 4.12299717e-03 -3.13747823e-02 -2.80573852e-02
      1.01687945e-02 -2.87737623e-02 -1.30535085e-02 -3.44358222e-03
      3.97760943e-02 1.28451185e-02 1.97348390e-02 -9.06698231e-04
      -5.21072894e-02 7.01706186e-02 -2.67700152e-03 -2.93553732e-02
      7.15156959e-04 2.16578543e-02 -6.28891680e-03 2.17662379e-02
      9.72333830e-03 1.78336874e-02 -4.64441068e-02 -5.69420867e-02
      -3.30337174e-02 6.14933716e-03 2.08229497e-02 4.19091731e-02
      2.66409777e-02 2.86519043e-02 -3.54122929e-02 1.72616988e-02
      -4.56003547e-02 -4.78905365e-02 1.29447328e-02 6.53378144e-02
      3.51264253e-02 -5.08466689e-03 2.28351858e-02 -7.20537826e-03
      5.97279109e-02 -4.47549410e-02 -7.95409754e-02 -4.99024093e-02
      2.06014328e-02 2.12200899e-02 1.30836461e-02 6.20666705e-03
      5.15902005e-02 2.97576692e-02 -1.31400516e-02 -2.22214740e-02
      -2.14230027e-02 -1.51734073e-02 -8.36187322e-03 1.35776531e-02
      -1.56546030e-02 2.12552976e-02 5.34336306e-02 -1.61909889e-02
      -3.17773595e-02 5.14467899e-03 4.06564400e-02 -6.05718186e-03
      -2.70024426e-02 -1.12970266e-02 1.85340866e-02 5.42561300e-02
      -6.26056315e-03 -3.20672765e-02 -2.57195551e-02 -2.69612446e-02
      -2.55857259e-02 7.88721535e-03 8.39641318e-03 4.38709483e-02
      6.51054364e-03 -1.34730795e-02 -9.34230257e-03 1.89415198e-02
      -1.55415377e-02 -1.17418319e-02 -4.91833687e-03 -8.64108838e-03
      -1.48268146e-02 -2.55535822e-03 1.60312336e-02 -2.14290358e-02
      -2.56642513e-02 -1.11330310e-02 1.97710632e-03 -1.02585433e-02
      2.07871553e-02 1.21174846e-02 3.75469215e-02 -6.09193929e-04
      -3.50390114e-02 5.62279066e-03 -1.84282754e-02 -3.52354757e-02
      -1.38330990e-02 4.20037238e-03 2.79912190e-03 2.01386474e-02
      3.14130932e-02 -1.32214874e-02 -1.34279141e-02 -2.16969941e-02
      -3.16338167e-02 -4.31615822e-02 -2.22803131e-02 2.19890680e-02
      6.87869219e-03 -2.79417029e-03 -4.18429896e-02 -3.36753242e-02
      -3.77011374e-02 1.03911357e-02 4.46894430e-02 3.82696837e-02
      2.62133423e-02 -5.31631522e-02 -5.96740171e-02 -5.48931807e-02
      1.60364155e-02 1.16424691e-02 4.86556664e-02 5.46590239e-02
      2.05221772e-03 -5.64189954e-03 9.41300578e-03 1.16970260e-02
      -3.18979211e-02 -2.05330215e-02 -4.02532630e-02 -8.99661519e-03
      -7.71669159e-03 -4.08716314e-03 2.73929560e-03 -4.76972498e-02
      -3.10053565e-02 4.33080923e-03 4.26828638e-02 2.61323582e-02
      5.88987581e-02 2.79359296e-02 6.72691409e-03 -2.01393832e-02
      -9.26942527e-02 -9.73283947e-02 -3.14654335e-02 4.89005484e-02
      5.98827079e-02 7.05162063e-02 5.23358583e-02 1.41994869e-02
      -3.09936982e-02 -5.81583865e-02 -1.00771785e-01 -4.95175682e-02
      1.24613903e-02 5.08098789e-02 1.08334213e-01 4.82884534e-02
      2.28426307e-02 3.31991469e-03 -1.14221334e-01 -1.11292355e-01
      -1.73232779e-02 3.89482155e-02 6.44688457e-02 4.50004786e-02
      2.68057305e-02 6.87197503e-03 -2.28367187e-02 -8.92020687e-02
      -8.39908943e-02 -2.15052515e-02 2.32516527e-02 6.55727983e-02
      8.05515274e-02 6.87414780e-02 5.01197949e-02 -2.95500197e-02
      -6.27635643e-02 -5.87086603e-02 1.52131971e-02 4.52472121e-02
      2.83499435e-02 4.22929600e-02 1.97270177e-02 3.36231664e-02
      -4.02972698e-02 -6.87798709e-02 -4.06178012e-02 -8.92381463e-03
      3.84945385e-02 2.76479032e-02 4.85052541e-02 4.31834560e-05
      -1.45732155e-02 -2.69683413e-02 -5.92149980e-02 -3.30453739e-02
      1.70457885e-02 5.59747219e-02 4.78488617e-02 3.22727077e-02
      1.67368017e-02 6.67140912e-03 1.57537591e-02 -1.07142730e-02
      -3.14160995e-02 -1.41583355e-02 1.21867042e-02 -6.41270634e-03
      1.46344090e-02 -7.10025849e-03 -3.81525196e-02 -1.46078812e-02
      -4.59859148e-02 2.92216521e-02 4.02742438e-02 4.87926230e-02
      5.48309684e-02 3.08445897e-02 1.75121211e-04 -2.24398263e-02
      -1.15151098e-02 -3.89011726e-02 2.53394935e-02 4.59324084e-02
      5.21696173e-02 2.54626237e-02 2.53102947e-02 -3.40172648e-02
      -2.53521707e-02 -1.87393222e-02 8.10129684e-04 -1.20164640e-02
      -9.29691596e-04 -9.62456129e-03 1.40783908e-02 1.98587812e-02
      -3.62353176e-02 -4.10701483e-02 -1.18328352e-02 1.58216506e-02
      8.93114135e-03 2.34108418e-02 1.05013512e-03 5.96429706e-02
      2.55968869e-02 -4.40559909e-02 2.16129310e-02 2.44147843e-03
      -7.48511702e-02 -5.02556786e-02 -1.86670795e-02 3.63603653e-03
      2.72173691e-03 3.42643857e-02 1.98971089e-02 2.67113447e-02
      -2.57878993e-02 -5.78026213e-02 -6.06271625e-02 -1.05446884e-02
      1.87347513e-02 5.33137992e-02 4.59028706e-02 2.68188063e-02
      1.90653317e-02 -2.61505637e-02 -1.24999462e-02 -2.54723802e-02
      -1.08730737e-02 1.38805690e-03 3.49956118e-02 1.97323672e-02
      -8.34853388e-03 -2.13408889e-03 -2.19198093e-02 -3.26913595e-02
      -4.03679274e-02 3.37138474e-02 9.79910512e-03 1.85138807e-02
      4.16398197e-02 1.83744803e-02 2.10914593e-02 -3.04521229e-02
      -1.52163617e-02 -4.52804789e-02 5.13229333e-03 2.59985626e-02
      4.86480854e-02 -2.48754234e-03 -2.68484801e-02 -3.17867137e-02
      -3.00644040e-02 3.91400196e-02 -2.58857198e-02 -2.04056967e-02
      -1.80240069e-02 1.60152223e-02 6.01146230e-03 -3.29248570e-02
      -1.59114767e-02 3.37048955e-02 -2.83936914e-02 -7.81839490e-02
      2.46874001e-02 1.53177939e-02 1.97935384e-02 2.03837678e-02
      -4.58316645e-03 -1.11309635e-02 -3.42169032e-02 2.15692800e-02
      -1.87213104e-02 -1.14748646e-02 1.12006227e-02 3.17561527e-04
      3.38094234e-02 1.49436351e-02 2.99987569e-02 -9.10480414e-03
      3.55660468e-02 -5.77860931e-03 -5.28587885e-02 -3.14976722e-02
      6.32949220e-03 7.37299724e-03 -1.65465027e-02 -3.33623476e-02
      3.33824418e-02 8.52414221e-03 3.55293527e-02 1.45105710e-02
      -3.54244909e-03 1.12905502e-02 -3.39809284e-02 -5.15600145e-02
      -5.34372255e-02 -1.84908248e-02 2.51980834e-02 7.01047992e-03
      -2.66309027e-02 -2.08898932e-02 3.01391049e-03 1.00931376e-02
      3.33368294e-02 2.87231877e-02 3.14099304e-02 1.36227394e-02
      2.78968066e-02 -9.10775829e-03 -3.70396264e-02 3.01598944e-02
      5.75467420e-05 2.51261648e-02 -3.00669149e-02 1.46048479e-02
      1.06234560e-02 2.50202175e-02 1.58751104e-02 1.94999240e-02
      -9.70312487e-03 -1.82548780e-02 -2.73431633e-02 -7.04360157e-02
      -5.77750914e-02 -4.97869365e-02 -2.89939847e-02 2.27134973e-02
      6.77677840e-02 4.67139781e-02 3.59783694e-02 -4.79848636e-03
      -3.82934995e-02 -4.29874696e-02 1.70455370e-02 6.04442470e-02
      3.90997157e-02 -7.27752550e-03 1.18847964e-02 1.83726326e-02
      1.23568233e-02 -3.96361090e-02 -5.63729974e-03 -1.30420150e-02
      -1.32736163e-02 2.88958587e-02 5.49618304e-02 3.45036164e-02
      1.19318524e-02 -4.66448441e-03 -6.45598248e-02 -2.30108202e-02
      -9.38136950e-02 -8.69342536e-02 5.58020128e-03 4.74380851e-02
      7.18453974e-02 2.79170834e-02 6.84689824e-03 -4.03591357e-02
      -2.07491331e-02 -6.74080551e-02 -6.20409809e-02 1.87505111e-02
      4.85725887e-02 9.62697193e-02 1.10483356e-01 8.59465674e-02
      8.33257847e-03 -3.93054746e-02 -3.73162441e-02 -4.53856364e-02
      2.93231402e-02 7.20124394e-02 5.87023497e-02 1.67985111e-02
      2.02761423e-02 -5.68531975e-02 -3.53747569e-02 -5.76886423e-02
      -2.37233751e-02 5.79961799e-02 7.37715811e-02 1.01608150e-01
      8.85906965e-02 8.17980915e-02 -3.12055415e-03 -7.21704587e-02
      -2.25910004e-02 -1.64730828e-02 -3.17688473e-03 3.22626345e-02
      5.92889115e-02 4.15711738e-02 2.86909472e-02 2.11566575e-02
      2.68102288e-02 -3.58596556e-02 -4.51622047e-02 -4.31020297e-02
      9.96797811e-03 4.00538519e-02 2.71298233e-02 3.57722980e-03
      1.32302253e-03 -8.88041779e-03 -8.17723721e-02 -6.64914101e-02
      -9.38317925e-02 -2.64458824e-02 3.08899116e-02 4.62919064e-02
      4.84283864e-02 7.59360343e-02 2.00703628e-02 -6.54344857e-02
      -5.90365306e-02 -3.79911177e-02 1.17796864e-02 6.21934794e-02
      6.25889674e-02 2.69089174e-02 2.33004428e-02 -2.71076486e-02
      -2.30428223e-02 -2.23836768e-02 -5.26215835e-03 2.52892673e-02
      3.28325965e-02 1.83438361e-02 -2.72788312e-02 -1.35722887e-02
      -4.19641584e-02 -7.32072722e-03 -1.41366031e-02 -2.27310974e-02
      4.95980633e-03 4.89498153e-02 3.28788869e-02 1.74094015e-03
      3.99613790e-02 -7.48930220e-03 -5.04974797e-02 -3.89613882e-02
      -8.58596433e-03 4.57636081e-02 5.89988977e-02 4.29622792e-02
      -1.21901995e-02 -6.28710864e-03 -3.46632041e-02 9.67740896e-04
      -4.72986288e-02 -4.22837138e-02 2.36644819e-02 5.58623411e-02
      3.54153514e-02 2.16356833e-02 4.24850360e-02 -1.08191455e-02
      -5.48793003e-02 -4.71269563e-02 -4.88372557e-02 -2.81435084e-02
      3.90087790e-03 6.06184360e-03 8.73499550e-03 -4.79884766e-04
      -2.63605099e-02 -6.63304552e-02 -5.03356196e-02 -4.91230376e-03
      9.13962815e-03 1.07378373e-02 1.92355793e-02 2.56872140e-02
      2.23319978e-02 5.25304466e-04 4.34049964e-03 -4.04793955e-02
      -3.35170589e-02 -1.79861989e-02 3.53455148e-03 2.56229993e-02
      5.40354922e-02 7.06970468e-02 3.56742069e-02 -1.89046767e-02
      -8.20523687e-03 -1.82436630e-02 2.05618776e-02 2.33924314e-02
      1.89236775e-02 7.39175603e-02 9.68393683e-02 1.98597163e-02
      -3.93409953e-02 -6.56022802e-02 -1.46464473e-02 4.04814724e-03
      8.19069054e-03 4.89159161e-03 2.41497830e-02 3.41556594e-02
      -1.39615005e-02 2.61076988e-04 -3.73617513e-04 -1.39886532e-02
      1.11225636e-04 -2.51055192e-02 1.24736177e-02 2.60648690e-02
      3.54091078e-02 -4.34116796e-02 -2.42299978e-02 -1.60540882e-02
      1.72850508e-02 2.72806291e-03 -3.03856023e-02 -2.64674816e-02
      1.98600683e-02 6.47346750e-02 -2.83068568e-02 2.67602243e-02
      3.23939659e-02 -1.99634694e-02 -1.36205405e-02 -3.15788537e-02
      -3.22828330e-02 8.38792417e-03 3.09344735e-02 -5.21653593e-02
      -6.40038028e-03 3.21008940e-03 -2.66946107e-02 -2.69814767e-02
      -2.56365687e-02 1.43361297e-02 3.20865177e-02 3.21873836e-02
      -2.42705829e-02 -1.14980005e-02 -1.01244105e-02 -1.96498744e-02
      -3.34453061e-02 8.72563478e-03 -1.73293464e-02 -7.14243017e-03
      -1.42582757e-02 -4.74952674e-03 1.58820432e-02 5.65404855e-02
      -6.47425326e-03 -2.88844090e-02 -2.52665263e-02 -2.52958573e-02
      -2.32735183e-03 -8.21794849e-03 -4.45300527e-02 -2.27857102e-03
      4.82677408e-02 4.53376099e-02 8.00226163e-03 -1.28790168e-02
      -6.04402274e-03 -1.17001571e-02 -2.63196789e-03 -1.14790574e-02
      9.92467068e-03 1.35581698e-02 1.65403169e-02 -1.78772975e-02
      -2.60719680e-04 -1.42329959e-02 -3.87908728e-03 -2.34527141e-02
      3.37028280e-02 2.88552959e-02 -9.88494139e-04 4.87661883e-02
      1.33701749e-02 -4.85519739e-03 -6.64379727e-03 -4.41848077e-02
      -5.13569377e-02 1.82893164e-02 2.38794181e-02 4.67543490e-02
      6.99928179e-02 3.56459394e-02 5.55766514e-04 -4.79064770e-02
      -5.13129681e-02 -4.93556634e-02 -2.90018357e-02 -1.99850518e-02
      -1.20647475e-02 1.92542803e-02 8.71490687e-03 -3.41310864e-03
      -2.22837832e-02 -2.86668222e-02 -3.98554616e-02 -8.70833173e-03
      -9.73670557e-03 -2.72229947e-02 6.13786317e-02 6.65402785e-02
      5.39715104e-02 4.86309342e-02 -3.00622080e-03 -3.18389162e-02
      -1.54323839e-02 -5.59213832e-02 -3.56646143e-02 4.50349823e-02
      8.00922737e-02 1.16599038e-01 8.73059556e-02 5.51316552e-02
      -1.23586552e-02 -5.14731035e-02 -6.45608231e-02 -4.38141190e-02
      7.02332892e-03 3.69751938e-02 3.99856530e-02 1.12049906e-02
      -3.33991311e-02 -3.14359218e-02 -2.11863033e-02 -6.01395257e-02
      -3.38807702e-02 6.10334724e-02 8.85086656e-02 1.01034202e-01
      3.15675437e-02 -4.26364727e-02 -8.71636719e-02 -5.95849939e-02
      -8.02551135e-02 -9.57185775e-02 -1.07732587e-01 -1.82778835e-02
      4.73546460e-02 4.58295755e-02 6.68928698e-02 1.01928540e-01
      1.82573888e-02 -4.41329964e-02 -5.32793924e-02 -4.66860868e-02
      3.33733782e-02 6.65993020e-02 5.35304323e-02 6.09908365e-02
      6.54353201e-02 -6.59996318e-03 -4.32379171e-02 -4.42863815e-02
      -9.53723714e-02 1.22642121e-03 4.89659496e-02 4.58885357e-02
      7.73038939e-02 9.93296206e-02 1.87139157e-02 1.45812531e-03
      -5.65991588e-02 -3.09870169e-02 6.30790517e-02 6.27721474e-02
      4.96682338e-02 8.38756934e-02 4.55177799e-02 -8.43463466e-03
      -6.86082318e-02 -6.85936064e-02 -5.57353944e-02 1.04440786e-02
      2.58283559e-02 3.92754152e-02 2.80324221e-02 1.73018444e-02
      -1.12456447e-02 -1.52248451e-02 -8.08172002e-02 -6.57174066e-02
      -2.06287336e-02 3.52564491e-02 7.62698948e-02 4.66398038e-02
      7.90622085e-02 1.75515525e-02 -3.64761613e-02 -1.03348985e-01
      -6.62969723e-02 3.34578641e-02 5.22122830e-02 3.29988562e-02
      4.53714058e-02 3.65996920e-02 -1.41789904e-02 5.40862381e-02
      -3.69982831e-02 -5.44498637e-02 -9.79255512e-03 3.17308977e-02
      5.97843267e-02 8.44103545e-02 1.23490252e-01 8.48202631e-02
      1.87544916e-02 -2.04216503e-02 -5.63201532e-02 -4.55220900e-02
      -1.25795528e-02 1.83373448e-02 3.33899483e-02 5.51084764e-02
      2.59391312e-02 6.46439660e-03 4.59475850e-04 1.25968587e-02
      -1.40985101e-02 -4.05943021e-02 -3.35117616e-02 -4.52009309e-03
      6.23486750e-02 2.82040592e-02 8.94049481e-02 4.65797856e-02
      -3.19099948e-02 -5.14930412e-02 -2.03096699e-02 -1.44756604e-02
      2.77106836e-02 5.67051731e-02 3.22914906e-02 2.77716387e-02
      3.40426378e-02 2.45940592e-02 -2.55860705e-02 -7.24911690e-02
      -6.24861158e-02 -4.40952145e-02 2.65857019e-02 1.03589194e-02
      2.71258373e-02 3.44548910e-03 3.58158574e-02 -1.09111816e-02
      -5.06856963e-02 -2.53258385e-02 2.65713111e-02 7.79624432e-02
      2.97290534e-02 5.56266941e-02 5.48505671e-02 1.08554987e-02
      -2.23611388e-02 -4.20919694e-02 -3.09706889e-02 -3.62898037e-02
      1.02718007e-02 -2.61444040e-03 3.87764536e-02 5.01149185e-02
      4.44391966e-02 -4.74666990e-02 -8.26334804e-02 -3.77019867e-02
      -1.07918698e-02 5.65720201e-02 3.03257424e-02 4.36778180e-02
      2.21180189e-02 3.72358747e-02 -2.69899759e-02 -4.86432388e-02
      -5.21077029e-02 -6.41985089e-02 8.25544633e-03 3.76710854e-02
      3.71730030e-02 4.29519825e-02 1.24927387e-02 -2.05611866e-02
      -2.04978660e-02 -2.73672398e-02 -4.61743176e-02 -2.91227829e-02
      -1.43498266e-02 2.18747277e-02 4.87807915e-02 4.53395434e-02
      1.22438958e-02 -1.69557389e-02 -5.49066951e-03 -2.81942841e-02
      -1.03579834e-02 2.55251545e-02 4.26953174e-02 1.88276696e-03
      -2.68957540e-02 -7.61418696e-03 -2.48692296e-02 -6.21525086e-02
      -9.59010348e-02 -3.93921919e-02 2.21389681e-02 5.70460372e-02
      2.34287009e-02 4.49188426e-03 3.83752361e-02 -2.70196646e-02
      -7.77858645e-02 -6.09159432e-02 -1.09253312e-02 3.45209017e-02
      2.07745545e-02 3.92659009e-02 5.84042817e-02 4.22578119e-02
      -2.46709269e-02 -7.27020577e-02 -3.62839177e-02 -5.37798293e-02
      -2.50873789e-02 -4.74951752e-02 -5.56118181e-03 2.22171992e-02
      3.49648148e-02 -9.43376403e-03 -3.20066921e-02 -4.44827005e-02
      -3.19908783e-02 -3.32122371e-02 4.40996215e-02 4.47233394e-02
      4.39147130e-02 5.23229167e-02 -2.34209299e-02 -6.32127523e-02
      -4.97341044e-02 -3.05156857e-02 -2.02363613e-03 2.48205252e-02
      4.11235690e-02 5.60616814e-02 3.17083150e-02 -1.21964852e-03
      8.05443246e-03 -3.30902375e-02 -1.80495437e-02 -1.58966631e-02
      -4.79252972e-02 4.32588626e-03 2.45149210e-02 3.82423773e-02
      2.31706258e-02 -2.40373379e-03 -3.07834689e-02 -7.62627944e-02
      -5.15554473e-02 -4.15061787e-02 3.33499201e-02 5.77144921e-02
      7.37171471e-02 7.12425783e-02 1.19300820e-02 -6.31366894e-02
      -1.37519717e-01 -6.13941811e-02 2.68530566e-02 4.01160792e-02
      7.04596415e-02 4.59592380e-02 3.60420048e-02 2.82605570e-02
      -5.49423918e-02 -4.01081592e-02 -4.37016487e-02 1.03163114e-02
      6.61779270e-02 6.27615526e-02 6.32649809e-02 8.69382694e-02
      2.48180162e-02 -5.11318520e-02 -5.97719885e-02 -2.91388016e-02
      -2.41023656e-02 -3.04489564e-02 -7.83138871e-02 -6.67117015e-02
      2.15501525e-03 3.44941579e-02 4.48585972e-02 7.83370063e-02
      -3.27122398e-03 1.58260595e-02 -9.15312022e-02 -7.19595402e-02
      -3.58924977e-02 -7.50042219e-03 3.33877169e-02 7.58857653e-02
      3.25122811e-02 1.37246717e-02 9.81145911e-03 -4.59789746e-02
      -5.43054268e-02 -6.66663945e-02 5.63389249e-02 9.50885415e-02
      6.86036944e-02 6.68382645e-02 1.80205386e-02 3.66409197e-02
      -4.59035486e-02 -7.13909864e-02 -6.98428899e-02 9.05553717e-03
      6.51186705e-02 9.99730676e-02 8.89589265e-02 5.24676144e-02
      1.17020831e-02 -9.25258249e-02 -8.84343013e-02 4.83327871e-03
      1.12869227e-02 1.24446778e-02 4.26594988e-02 1.16082029e-02
      -1.74101524e-03 8.07112232e-02 7.83493649e-03 -5.42655326e-02
      -2.44322810e-02 -3.59359272e-02 -1.49374024e-03 6.77477047e-02
      8.02213103e-02 7.94082135e-02 4.68647480e-02 -1.88712012e-02
      -4.84956689e-02 -1.11234799e-01 -4.56105247e-02 -3.30451690e-02
      3.38977762e-02 1.82816014e-02 3.79825197e-02 8.26071948e-02
      8.84218588e-02 1.39080780e-02 -7.57912323e-02 -1.01005718e-01
      -6.69392198e-02 3.74449492e-02 4.87182029e-02 7.34390020e-02
      6.87849075e-02 6.44392073e-02 -2.92494800e-02 -3.58935706e-02
      -8.70675072e-02 -2.90052798e-02 4.45532128e-02 7.63810351e-02
      4.82221805e-02 4.84444648e-02 7.99268410e-02 4.65291329e-02
      -4.96145673e-02 -1.12308070e-01 -9.86259282e-02 -3.21230479e-02
      -7.61118997e-03 5.68021135e-03 8.20348263e-02 9.34517533e-02
      -8.16984382e-03 -7.94000253e-02 -8.69785771e-02 -2.59023663e-02
      4.68151532e-02 4.53066938e-02 5.81517927e-02 5.88514358e-02
      6.30749241e-02 9.08031128e-03 -7.59394690e-02 -1.14207052e-01
      -7.54593834e-02 1.87077578e-02 3.28704193e-02 6.33351058e-02
      4.58627343e-02 6.87040836e-02 6.78214505e-02 -3.33771929e-02
      -8.45135227e-02 -4.95103002e-02 -3.40651684e-02 -7.19914353e-03
      -2.06172140e-03 3.44075933e-02 5.22341132e-02 7.42653525e-03
      -6.24413639e-02 -5.13508767e-02 -7.61203542e-02 -4.67468537e-02
      5.61024528e-03 3.82347815e-02 5.83187230e-02 9.27245468e-02
      2.03645192e-02 -5.11823520e-02 -7.44436532e-02 -2.31261216e-02
      4.44704667e-02 6.84702918e-02 8.20440874e-02 6.18440844e-02
      1.21179134e-01 2.52445415e-03 -5.18893190e-02 -4.91682068e-02
      -6.16823286e-02 -3.01405508e-02 5.01758419e-02 1.14883579e-01
      4.11329009e-02 1.08937724e-02 -3.48097645e-02 -4.66790609e-02
      -3.79467197e-02 -1.06973559e-01 -5.16495481e-02 2.47637723e-02
      5.88194355e-02 7.75391981e-02 1.14690419e-02 -6.47259783e-03
      3.04202270e-02 -5.23713678e-02 -1.00456163e-01 -7.08165690e-02
      1.51133863e-02 5.15161976e-02 7.85598233e-02 1.00884020e-01
      1.13509428e-02 -4.34742905e-02 -6.10576272e-02 -1.12373777e-01
      -5.98285981e-02 6.73524290e-02 1.09855019e-01 6.80085272e-02
      6.16444983e-02 3.53861973e-02 3.69180590e-02 -4.14316654e-02
      -8.45683813e-02 -4.56913467e-03 6.13480248e-02 1.05585143e-01
      3.74618657e-02 4.19091210e-02 2.05850005e-02 2.92061064e-02
      -4.35582660e-02 -9.54845697e-02 -7.78170079e-02 -4.67771217e-02
      -4.01599426e-03 3.17501314e-02 5.28906509e-02 5.73823527e-02
      2.15148516e-02 -1.63385719e-02 -3.05179339e-02 -5.87792620e-02
      -2.94701643e-02 2.66733244e-02 2.62067262e-02 3.76039110e-02
      3.84921320e-02 4.96540124e-05 -3.22148874e-02 -7.72351325e-02
      -3.41916159e-02 -5.19771241e-02 1.59865469e-02 3.38261239e-02
      7.35014826e-02 5.29817007e-02 3.95097844e-02 -2.34577656e-02
      -4.22603562e-02 3.27895652e-03 -4.58603762e-02 3.23164947e-02
      -1.50844287e-02 1.56061603e-02 5.82972653e-02 7.78272655e-03
      4.32013953e-03 -4.14834730e-02 -7.17116296e-02 -5.66388704e-02
      -4.24860530e-02 -1.98916066e-02 1.19496444e-02 3.93110365e-02
      1.33913336e-02 2.99221352e-02 -2.28111837e-02 -3.08489949e-02
      -2.62003541e-02 -5.05823120e-02 3.96385603e-03 1.71710253e-02
      5.01813591e-02 1.52034443e-02 -1.50178606e-02 -4.53427956e-02
      -1.07089588e-02 -2.85414625e-02 -7.93226936e-05 3.90544580e-03
      5.19615263e-02 5.59770241e-02 2.09985692e-02 1.28857987e-02
      1.00116404e-02 -3.74701549e-03 1.57669783e-02 -3.55005302e-02</_></support_vectors>
  <uncompressed_sv_total>74</uncompressed_sv_total>
  <uncompressed_support_vectors>
    <_>
      2.09762037e-01 2.49309167e-02 5.21891098e-03 5.42177027e-03
      1.04523581e-02 6.92120567e-02 1.26464546e-01 2.44512275e-01
      2.97129542e-01 2.56838143e-01 3.19445953e-02 3.99687188e-03
      7.85892457e-03 1.38928462e-02 4.46584970e-02 1.63690433e-01
      2.94697553e-01 2.97129542e-01 2.68723965e-01 2.05151588e-02
      4.86184098e-03 6.26699300e-03 1.00700399e-02 3.53345014e-02
      9.36752930e-02 2.91530192e-01 2.97129542e-01 1.79112598e-01
      2.19157040e-02 2.98180338e-03 5.63466502e-03 1.26182530e-02
      4.62338962e-02 2.11283714e-01 2.97129542e-01 2.97129542e-01
      1.57061622e-01 3.64289805e-02 1.55505342e-02 2.89771017e-02
      3.03768739e-02 6.64667562e-02 2.74190992e-01 2.75204450e-01
      2.49086484e-01 1.55030087e-01 5.64027987e-02 2.70954967e-02
      3.51404510e-02 3.05639319e-02 5.85147925e-02 2.07763001e-01
      2.75204450e-01 2.75204450e-01 1.47909254e-01 6.38478994e-02
      1.36409830e-02 4.02792320e-02 2.46247537e-02 4.68389504e-02
      2.75204450e-01 2.75204450e-01 2.75204450e-01 1.77888110e-01
      7.37410560e-02 4.63487022e-02 4.35923375e-02 1.73185151e-02
      3.74642722e-02 2.67587483e-01 2.75204450e-01 2.75204450e-01
      1.52193651e-01 4.82958518e-02 1.98501665e-02 1.34334564e-02
      2.56926287e-02 6.13094084e-02 2.25521430e-01 2.68928736e-01
      2.68928736e-01 1.45143241e-01 7.73150027e-02 3.37653905e-02
      2.61203572e-02 5.64357527e-02 6.69296831e-02 2.68928736e-01
      2.68928736e-01 2.68928736e-01 1.74281612e-01 5.74881993e-02
      7.10891038e-02 1.58863757e-02 1.99071020e-02 3.47863585e-02
      2.10840940e-01 2.68928736e-01 2.68928736e-01 2.68928736e-01
      7.28402957e-02 6.55267313e-02 4.04051393e-02 5.14048897e-02
      5.73850758e-02 2.32364401e-01 2.68928736e-01 2.68928736e-01
      1.16213270e-01 9.38052982e-02 4.87669371e-02 4.98988219e-02
      6.87841997e-02 5.85583784e-02 2.48559788e-01 2.30766684e-01
      1.92250594e-01 1.41107976e-01 2.13792458e-01 2.48559788e-01
      2.13698536e-01 1.67809874e-01 7.62881115e-02 6.31862134e-02
      5.05372137e-02 5.57878092e-02 2.16484159e-01 4.31895442e-02
      7.87521079e-02 8.58412459e-02 6.51604310e-02 5.77621683e-02
      2.48559788e-01 2.48559788e-01 2.44888574e-01 6.18396215e-02
      1.06553793e-01 2.48559788e-01 2.48559788e-01 2.48559788e-01
      2.48559788e-01 2.48559788e-01 1.06267795e-01 6.84248954e-02
      1.80972770e-01 2.29548782e-01 2.54290611e-01 1.21695563e-01
      7.42950812e-02 3.27398293e-02 5.68736158e-02 1.10253461e-01
      1.05138972e-01 1.55716524e-01 1.25613242e-01 1.41719088e-01
      2.21947804e-02 1.64464675e-02 4.68924604e-02 2.40710646e-01
      2.54290611e-01 1.83202639e-01 5.47107905e-02 1.21537253e-01
      2.54290611e-01 2.41641894e-01 1.89627945e-01 2.54290611e-01
      2.54290611e-01 1.60411432e-01 6.38582334e-02 7.65143931e-02
      1.12811871e-01 1.70905888e-01 4.93196324e-02 4.68856767e-02
      2.13908345e-01 2.54290611e-01 2.54290611e-01 1.29785120e-01
      7.61890486e-02 1.21697485e-01 1.83722511e-01 8.83504227e-02
      2.05002073e-02 4.77095917e-02 1.37040332e-01 2.37073585e-01
      1.11411549e-01 1.63264856e-01 1.57101810e-01 2.37073585e-01
      1.22421429e-01 7.88898841e-02 2.05200180e-01 2.12990642e-01
      1.55870438e-01 1.67530045e-01 5.85957319e-02 1.98472857e-01
      2.37073585e-01 1.48229659e-01 5.25673330e-02 1.38256207e-01
      2.33738735e-01 2.37073585e-01 7.06047192e-02 6.57858998e-02
      1.70439497e-01 2.37073585e-01 1.98164403e-01 2.37073585e-01
      2.37073585e-01 2.37073585e-01 1.25901029e-01 6.90157115e-02
      1.28439873e-01 5.46067655e-02 9.00756717e-02 7.26707056e-02
      1.85792297e-01 2.93356746e-01 2.97616214e-01 1.76093712e-01
      1.37344331e-01 2.11195678e-01 6.72054365e-02 2.23822203e-02
      3.27828899e-02 1.49484843e-01 7.10019767e-02 9.80193615e-02
      5.58950454e-02 9.29069445e-02 3.66571881e-02 4.46089357e-02
      8.46912414e-02 1.37305558e-01 2.97616214e-01 2.97616214e-01
      2.97616214e-01 2.62582183e-01 8.03981349e-02 4.92206961e-02
      4.64049987e-02 1.41050545e-02 5.92779070e-02 2.40119651e-01
      1.79341316e-01 2.97616214e-01 1.99389681e-01 9.34946686e-02
      1.51196688e-01 2.72432789e-02 7.71765411e-03 2.00637486e-02
      3.61876339e-02 7.68475085e-02 2.56424844e-01 2.56424844e-01
      2.56424844e-01 1.23787537e-01 3.31520885e-02 5.25923120e-03
      1.26430951e-02 5.46104573e-02 1.00623935e-01 2.01808110e-01
      2.56424844e-01 2.56424844e-01 2.56424844e-01 1.44203454e-01
      6.37723431e-02 8.35696533e-02 8.21735635e-02 1.19552366e-01
      2.56424844e-01 2.56424844e-01 8.69036317e-02 2.56424844e-01
      1.67510927e-01 5.00736646e-02 8.31550434e-02 1.17459379e-01
      1.44821778e-01 2.06802234e-01 2.50428498e-01 2.56424844e-01
      1.75595433e-01 8.09369385e-02 1.79394167e-02 3.68472897e-02
      4.18127514e-02 5.15051074e-02 2.16633707e-01 2.88286895e-01
      2.88286895e-01 2.17209965e-01 9.38247442e-02 7.19330981e-02
      5.27002849e-02 2.79890355e-02 5.74362241e-02 2.09452420e-01
      2.88286895e-01 2.88286895e-01 2.28912309e-01 5.84496595e-02
      1.65578872e-02 3.64288725e-02 5.78162484e-02 6.69743568e-02
      1.39749646e-01 2.66053498e-01 2.88286895e-01 2.51195401e-01
      1.83590800e-02 1.72881614e-02 2.36689057e-02 2.00157166e-02
      3.24450247e-02 9.34968889e-02 2.57155567e-01 2.88286895e-01
      2.66701400e-01 1.03454478e-01 1.82671130e-01 4.76790145e-02
      3.77878994e-02 8.26408193e-02 2.01633096e-01 2.66701400e-01
      2.66701400e-01 2.66701400e-01 9.22813565e-02 1.28460348e-01
      6.83784261e-02 6.09708540e-02 4.83905040e-02 8.55461136e-02
      2.66701400e-01 2.66701400e-01 2.66701400e-01 4.44713123e-02
      5.52034862e-02 4.38979454e-02 4.60096002e-02 6.29389137e-02
      1.22909456e-01 2.66701400e-01 2.66701400e-01 2.39440009e-01
      6.26280978e-02 7.10548386e-02 5.41466288e-02 5.02769649e-02
      3.84557582e-02 7.19256774e-02 2.02874184e-01 2.66701400e-01
      1.94601357e-01 4.00284417e-02 8.90991911e-02 8.57768729e-02
      6.89842030e-02 5.79335503e-02 1.20314553e-01 2.31710225e-01
      2.83225268e-01 7.25539178e-02 3.82936858e-02 9.52156186e-02
      2.69902587e-01 3.09114009e-01 3.09114009e-01 3.09114009e-01
      1.57965451e-01 1.27246112e-01 1.64969236e-01 5.85031286e-02
      4.93406579e-02 3.19322161e-02 5.14317639e-02 5.16222343e-02
      7.12673813e-02 1.11132510e-01 1.97668239e-01 1.02375306e-01
      1.06562719e-01 5.17890863e-02 3.72669138e-02 1.01428911e-01
      3.09114009e-01 3.09114009e-01 1.62182480e-01 1.40350193e-01
      1.50995580e-02 1.12866741e-02 4.01192345e-02 8.23056176e-02
      9.95520428e-02 3.01367521e-01 3.01367521e-01 1.79672435e-01
      6.11384213e-02 4.56116498e-02 5.19649312e-02 7.48291910e-02
      5.52623682e-02 3.98429744e-02 2.30621532e-01 3.01367521e-01
      3.01367521e-01 1.58561900e-01 2.44263783e-02 2.35324278e-02
      1.28561771e-02 1.30826822e-02 2.75292173e-02 2.60069340e-01
      3.01367521e-01 2.79834270e-01 8.74146968e-02 2.36706138e-02
      4.18739393e-02 6.17288351e-02 4.53137197e-02 2.57326514e-02
      1.69005617e-01 3.01367521e-01 3.01367521e-01 1.41352192e-01
      7.47809485e-02 1.47465482e-01 2.53124952e-01 1.50415927e-01
      6.81784302e-02 1.54535159e-01 2.29889914e-01 1.80473089e-01
      1.28867641e-01 9.13883522e-02 1.25107691e-01 2.09994391e-01
      1.44730285e-01 2.53124952e-01 2.53124952e-01 2.53124952e-01
      1.66677997e-01 9.55580622e-02 4.86211143e-02 6.90863952e-02
      1.21899500e-01 1.11284040e-01 5.62203489e-02 9.01194885e-02
      2.53124952e-01 2.53124952e-01 1.48469970e-01 1.30799353e-01
      6.60705343e-02 8.44423324e-02 9.83984992e-02 1.34020209e-01
      1.34668455e-01 2.53124952e-01 2.53124952e-01 1.90584198e-01
      2.98535489e-02 2.40901746e-02 1.99768990e-02 5.28159402e-02
      2.50300944e-01 2.50300944e-01 2.50300944e-01 2.39973649e-01
      7.59715512e-02 1.39814587e-02 1.47766573e-02 4.69890237e-03
      3.00734639e-02 2.29012609e-01 2.50300944e-01 2.50300944e-01
      2.30851993e-01 8.56578425e-02 8.31701458e-02 4.30058800e-02
      7.32570067e-02 9.55252424e-02 2.50300944e-01 2.24331990e-01
      2.50300944e-01 1.40423074e-01 8.00620168e-02 1.92245841e-02
      2.21341923e-02 1.03983842e-01 2.50300944e-01 2.50300944e-01
      2.50300944e-01 2.50300944e-01 1.16469629e-01 3.09349224e-02
      2.62426794e-01 1.08399026e-01 5.61631210e-02 5.77373020e-02
      4.31652926e-02 2.94660255e-02 6.85237497e-02 6.99772388e-02
      2.56500870e-01 2.93156534e-01 1.17199779e-01 5.22262491e-02
      7.78528228e-02 5.05582280e-02 5.28218970e-02 2.00711429e-01
      8.57699364e-02 2.93156534e-01 2.93156534e-01 4.81524356e-02
      2.47953329e-02 1.58404764e-02 3.85828279e-02 1.93562340e-02
      1.77810296e-01 2.93156534e-01 2.93156534e-01 2.93156534e-01
      6.33953214e-02 3.16354819e-02 3.13420258e-02 1.94074176e-02
      2.72977725e-02 1.58182085e-01 2.93156534e-01 2.93156534e-01
      2.65023381e-01 5.84540814e-02 2.31663939e-02 4.35298420e-02
      3.94275375e-02 4.52067852e-02 1.61244839e-01 1.83260366e-01
      2.98273206e-01 2.43568167e-01 2.00903937e-02 1.05122244e-02
      2.36205012e-02 1.40221277e-02 1.43185649e-02 5.40942736e-02
      2.23628461e-01 2.98273206e-01 2.98273206e-01 6.53237626e-02
      2.70642899e-02 4.23346460e-02 2.84017529e-02 4.55159694e-02
      1.41607687e-01 2.98273206e-01 2.98273206e-01 2.66364992e-01
      5.02494015e-02 2.54736673e-02 4.93639074e-02 3.23227905e-02
      5.38300201e-02 1.04983091e-01 2.98273206e-01 2.98273206e-01
      2.03076243e-01 3.64854001e-02 1.28305368e-02 3.63336727e-02
      1.65646374e-02 2.98878960e-02 1.42524332e-01 2.66781598e-01
      2.66781598e-01 2.24985108e-01 4.48384434e-02 1.63831264e-02
      2.79517137e-02 2.01337002e-02 4.15279567e-02 1.00824445e-01
      2.18817160e-01 2.66781598e-01 2.66781598e-01 1.07513063e-01
      2.46655401e-02 6.33769184e-02 3.09239849e-02 5.50299473e-02
      2.11644337e-01 2.66781598e-01 2.66781598e-01 2.66781598e-01
      2.66781598e-01 3.05597000e-02 3.93400155e-02 6.49361908e-02
      8.50843564e-02 1.65283203e-01 2.66781598e-01 2.66781598e-01
      1.40042767e-01 5.58121502e-02 2.45228689e-02 9.67398100e-03
      1.33542009e-02 3.25791426e-02 7.79926479e-02 1.47060812e-01
      2.36706272e-01 2.13860735e-01 1.42663032e-01 6.31318614e-02
      4.59115161e-03 8.11332930e-03 2.28768550e-02 8.25405642e-02
      1.64844990e-01 2.52333313e-01 2.69039869e-01 2.69039869e-01
      1.17412046e-01 1.07507175e-02 4.48792726e-02 7.36201853e-02
      1.23044319e-01 2.69039869e-01 2.69039869e-01 2.69039869e-01
      2.69039869e-01 2.69039869e-01 1.03573911e-02 1.38531597e-02
      2.51778178e-02 1.78089529e-01 2.69039869e-01 2.69039869e-01
      1.71302095e-01 6.22424409e-02 2.71690954e-02 3.04647931e-03
      5.81240468e-03 4.94370461e-02 1.52376011e-01 2.04248130e-01
      2.10851729e-01 7.05944896e-02 3.23110074e-02 2.51719132e-02
      1.15244705e-02 1.31421499e-02 6.82852492e-02 2.92094171e-01
      2.92094171e-01 1.91980124e-01 2.92094171e-01 1.55435696e-01
      8.12978670e-02 3.81773501e-03 9.60052386e-03 2.13982742e-02
      2.03202754e-01 2.92094171e-01 2.92094171e-01 2.04813272e-01
      3.61754373e-02 7.86086544e-03 3.68993776e-03 3.31903026e-02
      5.60848713e-02 2.92094171e-01 2.92094171e-01 2.92094171e-01
      1.85089242e-02 2.10482739e-02 2.62771267e-02 2.67554931e-02
      2.11825222e-02 6.28907755e-02 2.77606368e-01 2.77606368e-01
      1.14137620e-01 5.86331300e-02 3.39865908e-02 4.13955785e-02
      6.12613186e-02 5.21250404e-02 1.02710925e-01 2.77606368e-01
      2.77606368e-01 1.03932820e-01 1.11412756e-01 4.10155207e-02
      6.21307567e-02 1.44069329e-01 7.51649663e-02 1.00085087e-01
      2.77606368e-01 2.77606368e-01 2.77606368e-01 7.99830258e-02
      5.84249981e-02 1.89896166e-01 2.77606368e-01 1.72817767e-01
      1.64819881e-01 2.77606368e-01 2.77606368e-01 1.24661565e-01
      7.89522752e-02 5.23011610e-02 9.36736166e-02 1.07128464e-01
      1.18760996e-01 1.72718227e-01 2.30592519e-01 1.35842428e-01
      6.82361796e-02 3.20999362e-02 3.96325402e-02 1.71181440e-01
      2.48911858e-01 2.29561463e-01 2.48911858e-01 2.48911858e-01
      1.61658987e-01 3.76431346e-02 9.10423324e-02 7.47147948e-02
      9.41774100e-02 2.14355662e-01 1.44655704e-01 1.90090448e-01
      2.48911858e-01 2.48911858e-01 1.59793347e-01 1.18173875e-01
      1.15055896e-01 9.38804001e-02 1.21790089e-01 1.25274777e-01
      2.27169424e-01 2.48911858e-01 2.48911858e-01 1.81079730e-01
      2.78388113e-01 4.07662652e-02 5.79642225e-03 2.70602177e-03
      1.12113487e-02 5.40415710e-03 1.01988599e-01 2.78388113e-01
      2.78388113e-01 2.78388113e-01 8.07597786e-02 1.51436767e-02
      1.23651922e-02 1.03891799e-02 1.18410029e-02 7.60508180e-02
      2.78388113e-01 2.78388113e-01 2.78388113e-01 1.79662496e-01
      3.60702462e-02 1.76844597e-02 7.35721726e-04 7.15389106e-05
      1.58263277e-02 1.33859575e-01 2.78388113e-01 2.78388113e-01
      2.78388113e-01 6.45209625e-02 1.18220160e-02 1.54105294e-02
      1.85869839e-02 4.65772636e-02 2.45776445e-01 2.78388113e-01
      2.63383955e-01 1.46514073e-01 2.68173795e-02 4.75391299e-02
      1.92843471e-02 3.70861739e-02 6.42865226e-02 2.65044838e-01
      2.65044838e-01 2.65044838e-01 9.56323594e-02 2.35988759e-02
      5.72226457e-02 2.75988951e-02 3.79808135e-02 6.29105940e-02
      2.65044838e-01 2.65044838e-01 2.65044838e-01 2.65044838e-01
      1.01558380e-01 2.96589956e-02 2.55780835e-02 4.67797518e-02
      4.04681638e-02 2.65044838e-01 2.35815421e-01 2.65044838e-01
      1.76325515e-01 4.01185453e-02 3.02140471e-02 1.11726513e-02
      2.00940482e-02 1.88325811e-02 2.65044838e-01 2.65044838e-01
      3.08429033e-01 7.21196607e-02 2.28792820e-02 4.42079566e-02
      2.61676572e-02 1.92182511e-02 7.21500069e-02 2.36861184e-01
      3.08429033e-01 3.08429033e-01 1.96769059e-01 4.20054235e-02
      2.62661763e-02 5.68588376e-02 4.00335416e-02 7.12057874e-02
      1.91865444e-01 3.08429033e-01 3.08429033e-01 7.56921843e-02
      2.82661021e-02 2.79604346e-02 1.09703206e-02 8.97687115e-03
      1.75306480e-02 1.64155230e-01 3.08429033e-01 3.08429033e-01
      1.34367332e-01 4.76557501e-02 1.52218752e-02 2.88269576e-02
      3.26200910e-02 2.21100003e-02 1.42306343e-01 3.08429033e-01
      2.77840734e-01 1.90746829e-01 4.89180312e-02 6.02965662e-03
      3.04005221e-02 2.87881680e-02 4.39228602e-02 1.51307777e-01
      2.85479337e-01 2.80494392e-01 1.88652605e-01 9.46858153e-02
      8.45802762e-03 2.30364688e-02 2.04303134e-02 1.09757699e-01
      2.81753898e-01 2.85479337e-01 2.85479337e-01 1.24635987e-01
      4.67519723e-02 2.27161217e-03 1.50585119e-02 2.08916981e-02
      3.05636432e-02 1.64951950e-01 2.85479337e-01 2.85479337e-01
      1.16094418e-01 3.11385058e-02 4.71798750e-03 2.20492054e-02
      1.80238206e-02 8.10956880e-02 2.85479337e-01 2.85479337e-01
      1.80117637e-01 7.90182129e-02 3.42095718e-02 6.17646426e-03
      3.13021690e-02 2.68065613e-02 1.90824077e-01 2.75776744e-01
      2.75776744e-01 1.93259880e-01 4.83083129e-02 8.16691574e-03
      1.19710444e-02 2.94632055e-02 3.26822251e-02 2.48422399e-01
      2.52909690e-01 2.75776744e-01 2.75776744e-01 7.47209489e-02
      1.08517539e-02 1.84159558e-02 3.09823249e-02 2.76149083e-02
      1.02448903e-01 2.75776744e-01 2.75776744e-01 2.75776744e-01
      1.13816068e-01 1.74097121e-01 8.81822482e-02 2.21085940e-02
      2.82464437e-02 1.27588227e-01 2.37580955e-01 2.75776744e-01
      2.14134231e-01 6.04047365e-02 5.47644682e-02 1.37224331e-01
      7.72697181e-02 6.33864775e-02 1.96004704e-01 1.53431416e-01
      2.24002987e-01 1.54038608e-01 9.05915499e-02 1.54524818e-01
      2.24002987e-01 2.19396666e-01 1.40570521e-01 2.19486684e-01
      1.98651060e-01 2.24002987e-01 2.24002987e-01 9.54921246e-02
      2.21347064e-01 1.02398492e-01 8.21574181e-02 6.84082359e-02
      1.29070744e-01 2.24002987e-01 2.24002987e-01 1.82871893e-01
      9.98862088e-02 1.06387541e-01 1.50996372e-01 2.04939008e-01
      1.57598108e-01 1.51994258e-01 1.88152820e-01 2.06173152e-01
      1.25494480e-01 1.43630400e-01 8.70550498e-02 1.51727185e-01
      1.14703454e-01 7.24938735e-02 2.02467844e-01 1.73524812e-01
      2.00927228e-01 2.27937564e-01 2.56588906e-01 1.19808532e-01
      8.78608823e-02 5.65361753e-02 3.86008583e-02 1.95868939e-01
      1.53995901e-01 2.43864000e-01 2.41261005e-01 1.92212120e-01
      9.58653763e-02 1.19434439e-01 9.34813395e-02 8.88176039e-02
      1.27231717e-01 1.30003154e-01 2.56588906e-01 2.56588906e-01
      2.56588906e-01 1.32436201e-01 5.93885295e-02 1.93981174e-02
      3.60820033e-02 1.19205520e-01 2.56588906e-01 2.56588906e-01
      3.09740186e-01 2.80932546e-01 1.25422522e-01 6.29158095e-02
      5.06602088e-03 2.33172323e-03 7.31987925e-03 5.21472320e-02
      3.02682668e-01 3.09740186e-01 3.09740186e-01 1.34075999e-01
      2.28131544e-02 8.50768201e-03 2.20022853e-02 1.55473957e-02
      6.42413944e-02 2.02967167e-01 3.09740186e-01 3.09740186e-01
      1.10242926e-01 4.14273255e-02 4.74232389e-03 4.97024506e-03
      8.51229113e-03 2.78524328e-02 1.21553592e-01 3.09740186e-01
      3.09740186e-01 1.35899037e-01 2.54481416e-02 6.78810000e-04
      7.87255820e-03 1.10555515e-02 3.48264836e-02 1.32767871e-01
      2.69485027e-01 3.09387892e-01 1.09771796e-01 2.19375044e-02
      1.03947874e-02 3.73162888e-02 2.46215444e-02 6.90759048e-02
      1.07997157e-01 3.53364348e-01 2.61304736e-01 7.03071952e-02
      2.24330109e-02 6.70140889e-03 1.80075839e-02 1.88610032e-02
      7.64290541e-02 2.11256623e-01 3.53364348e-01 3.53364348e-01
      8.36345851e-02 2.15071328e-02 5.50815975e-03 1.37042142e-02
      2.35496927e-02 3.40511203e-02 1.14350542e-01 3.53364348e-01
      3.53364348e-01 5.71054444e-02 2.46570725e-02 2.15710942e-02
      1.71056893e-02 3.37400101e-02 2.91259345e-02 1.36823043e-01
      3.21190804e-01 2.27270991e-01 3.77772786e-02 1.82445906e-02
      3.38964094e-03 6.38897112e-03 7.08533125e-03 3.77728008e-02
      2.19445363e-01 3.21190804e-01 3.21190804e-01 7.09410384e-02
      1.05721923e-02 9.11823101e-03 2.60551423e-02 1.10207917e-02
      5.89436442e-02 2.97692865e-01 3.21190804e-01 3.21190804e-01
      4.03096378e-02 1.80220921e-02 1.64709780e-02 1.94520634e-02
      3.16347592e-02 4.20139283e-02 1.63111240e-01 3.21190804e-01
      3.21190804e-01 1.05886154e-01 3.00525781e-02 1.77646410e-02
      2.49625072e-02 3.61543670e-02 6.20280989e-02 1.52466267e-01
      2.98598409e-01 2.98598409e-01 1.36698827e-01 6.29227888e-03
      9.17160418e-03 3.51926014e-02 3.13453674e-02 1.04539841e-01
      2.98598409e-01 2.98598409e-01 1.70598835e-01 7.07146972e-02
      1.03106024e-02 1.33525534e-02 2.27832124e-02 4.39103283e-02
      1.74425766e-01 2.98598409e-01 2.98598409e-01 2.98598409e-01
      1.25130072e-01 5.16344495e-02 3.80350985e-02 4.80848141e-02
      5.59077859e-02 7.17161000e-02 1.65020511e-01 2.98598409e-01
      1.64413154e-01 5.02809361e-02 4.63408530e-02 4.92377244e-02
      4.93410565e-02 6.74343109e-02 1.24730125e-01 2.65053093e-01
      2.86769181e-01 1.49119616e-01 2.34691873e-02 3.10295932e-02
      1.17721986e-02 1.41120329e-02 2.40896437e-02 1.92252666e-01
      2.86769181e-01 2.86769181e-01 1.79891676e-01 2.86769181e-01
      1.52030975e-01 5.18911220e-02 7.55546615e-02 1.12174354e-01
      1.78434923e-01 2.86769181e-01 2.86769181e-01 1.86518639e-01
      6.28526434e-02 3.84830385e-02 2.83748526e-02 3.29271182e-02
      3.97945419e-02 1.46897331e-01 2.66171962e-01 2.07312554e-01
      1.67618781e-01 1.68429360e-01 1.14447743e-01 9.43158939e-02
      1.02628320e-01 1.28817439e-01 1.34030312e-01 1.76466599e-01
      1.33168995e-01 7.17862621e-02 2.32924893e-01 1.08958565e-01
      1.13729328e-01 1.41304195e-01 2.17716366e-01 2.28733778e-01
      1.85933188e-01 9.43129957e-02 4.91009057e-02 8.88512433e-02
      9.25353169e-02 1.59910977e-01 1.80644900e-01 2.32924893e-01
      2.32924893e-01 1.57861874e-01 1.89662367e-01 9.89659056e-02
      1.14432372e-01 8.96511301e-02 1.16603650e-01 1.51264772e-01
      2.32924893e-01 1.72465682e-01 1.85945198e-01 2.32924893e-01
      1.43153310e-01 6.56783804e-02 9.09267142e-02 1.60562247e-01
      1.55728146e-01 2.32924893e-01 2.32924893e-01 2.32924893e-01
      1.56349421e-01 1.43330514e-01 7.59266764e-02 6.56667501e-02
      5.46147004e-02 8.37091729e-02 1.13315374e-01 1.56273291e-01
      2.24946558e-01 2.64243692e-01 2.64243692e-01 1.27619937e-01
      2.91050132e-02 1.23088136e-02 5.56467809e-02 1.32824421e-01
      2.64243692e-01 2.64243692e-01 1.53467983e-01 2.07008317e-01
      1.22924596e-01 7.04818293e-02 1.06315620e-01 7.11356774e-02
      1.24661386e-01 2.64243692e-01 2.50693202e-01 2.25617498e-01
      2.64243692e-01 2.64243692e-01 8.29661041e-02 9.32313874e-02
      7.58187696e-02 8.76735449e-02 1.01690754e-01 2.14836448e-01
      2.52688527e-01 3.09330195e-01 1.37374490e-01 1.88212842e-02
      2.26806365e-02 1.73445679e-02 9.10857599e-03 2.53690928e-02
      1.22973986e-01 3.09330195e-01 3.09330195e-01 9.40882862e-02
      6.14689756e-03 5.35828294e-03 7.37486000e-04 4.47608763e-03
      1.89403370e-02 2.30354831e-01 3.09330195e-01 2.78134495e-01
      1.13641284e-01 1.22794574e-02 4.84751910e-02 3.50575298e-02
      2.71756034e-02 1.10954374e-01 3.09330195e-01 3.09330195e-01
      2.26772398e-01 5.41248806e-02 4.01401799e-03 7.60594476e-03
      2.24031252e-03 1.02112722e-02 5.84705360e-02 3.09330195e-01
      3.22447747e-01 3.22447747e-01 4.80592884e-02 1.33355577e-02
      1.40151521e-02 1.78739603e-04 9.66006797e-03 2.90772561e-02
      2.31546566e-01 3.22447747e-01 3.22447747e-01 2.54531112e-02
      2.06048451e-02 2.74877176e-02 7.69274775e-03 2.71845274e-02
      3.40629481e-02 1.33448854e-01 3.22447747e-01 1.36938363e-01
      2.59417761e-02 1.17090493e-02 1.33916931e-02 7.49193656e-04
      1.00701340e-02 4.83707488e-02 3.22447747e-01 3.22447747e-01
      2.44862914e-01 1.69691462e-02 1.41346278e-02 1.60255246e-02
      9.22586117e-03 3.11298463e-02 4.71842699e-02 3.22447747e-01
      3.53486896e-01 3.11057448e-01 2.49376204e-02 1.85091663e-02
      2.48896591e-02 2.28701979e-02 4.65763062e-02 5.41420989e-02
      1.55646414e-01 3.53486896e-01 2.14961916e-01 7.22636580e-02
      2.38519106e-02 2.73408871e-02 3.50266546e-02 5.18488735e-02
      8.16574320e-02 2.16050223e-01 3.53486896e-01 3.12436402e-01
      1.44918878e-02 8.70826375e-03 1.48591222e-02 2.08043568e-02
      5.01923487e-02 5.45828417e-02 2.57000774e-01 3.53486896e-01
      1.76525757e-01 4.62244377e-02 1.48959784e-02 2.25677025e-02
      2.20569465e-02 3.58430929e-02 5.35975695e-02 2.22892687e-01
      3.29586655e-01 3.07745695e-01 8.63926262e-02 4.88273576e-02
      5.12863435e-02 4.36867476e-02 5.18795773e-02 8.09724852e-02
      1.87055126e-01 3.29586655e-01 3.29586655e-01 4.10748348e-02
      4.79764342e-02 6.76754192e-02 5.02906814e-02 6.50050491e-02
      1.13278791e-01 2.01235890e-01 3.29586655e-01 2.51164973e-01
      6.80738613e-02 3.64159830e-02 3.17892171e-02 1.90729331e-02
      2.01373193e-02 3.97826657e-02 1.86365858e-01 3.29586655e-01
      2.86913335e-01 4.96911928e-02 4.87267077e-02 9.21387151e-02
      5.24502918e-02 3.89425606e-02 5.54221645e-02 1.46480665e-01
      2.48287275e-01 1.96323469e-01 7.65118301e-02 7.24159107e-02
      1.44017249e-01 9.74104106e-02 4.82241251e-02 9.65114534e-02
      1.32104650e-01 1.79921538e-01 1.68684915e-01 1.47082403e-01
      1.30405515e-01 1.88183606e-01 1.33725762e-01 6.14626259e-02
      8.50728676e-02 6.54325932e-02 2.48287275e-01 1.02476120e-01
      6.07456192e-02 9.56363007e-02 2.48287275e-01 2.48287275e-01
      1.82777345e-01 1.18449464e-01 1.11347787e-01 2.16085136e-01
      1.50993913e-01 1.59217671e-01 2.16989413e-01 2.48287275e-01
      2.48287275e-01 2.48287275e-01 1.96110561e-01 1.59414425e-01
      1.77257657e-01 1.96107849e-01 1.02717854e-01 1.02240577e-01
      9.71582606e-02 9.42517892e-02 8.43737572e-02 8.21880996e-02
      1.44031987e-01 2.36314371e-01 2.36314371e-01 1.33519351e-01
      1.52851403e-01 1.31404221e-01 8.02985355e-02 9.93679464e-02
      2.35619962e-01 2.36314371e-01 2.25569427e-01 2.36314371e-01
      2.36314371e-01 2.36314371e-01 1.76134408e-01 9.18064266e-02
      9.18047801e-02 7.84036368e-02 1.09585777e-01 2.02515945e-01
      2.36314371e-01 2.36314371e-01 2.36314371e-01 2.17806548e-01
      8.11962560e-02 3.16264667e-02 5.54522090e-02 6.98455200e-02
      1.39682800e-01 1.65232539e-01 1.18816718e-01 1.58295080e-01
      1.88962102e-01 9.31232870e-02 8.91002119e-02 2.33478725e-01
      1.87800586e-01 2.27354825e-01 2.26354763e-01 1.84195206e-01
      1.80592313e-01 2.43746474e-01 1.44049689e-01 8.27685446e-02
      9.84899774e-02 2.43746474e-01 8.73949751e-02 1.01941340e-01
      2.04305843e-01 2.43746474e-01 2.43746474e-01 1.06613219e-01
      3.59137021e-02 7.76670650e-02 5.07814288e-02 1.64654553e-01
      6.09032847e-02 1.14456661e-01 2.43746474e-01 2.43746474e-01
      2.43746474e-01 4.37736847e-02 4.36350927e-02 1.34323999e-01
      2.35250652e-01 4.31700647e-02 1.98055599e-02 4.08266671e-03
      2.33273022e-02 1.73922386e-02 2.76491381e-02 2.44722888e-01
      3.34337682e-01 3.34337682e-01 3.46625708e-02 1.04978159e-02
      4.05079173e-03 5.17235650e-03 2.91292672e-03 2.60485765e-02
      1.99184537e-01 3.34337682e-01 1.15421057e-01 2.66783144e-02
      7.00792763e-03 3.12798261e-03 1.20979277e-02 6.84948172e-03
      6.94959387e-02 3.34337682e-01 3.34337682e-01 1.16622917e-01
      1.02561964e-02 6.49250299e-03 1.22979730e-02 3.49813141e-02
      3.54822390e-02 1.33631974e-01 3.34337682e-01 3.34337682e-01
      3.02570343e-01 7.08162487e-02 1.49210300e-02 9.87410732e-03
      6.18782826e-03 3.80983530e-03 6.06814958e-02 1.99472710e-01
      3.02570343e-01 3.02570343e-01 1.53162643e-01 2.83093061e-02
      2.87909191e-02 1.39207738e-02 2.64176931e-02 9.11749154e-02
      1.16255142e-01 3.02570343e-01 1.45385414e-01 4.24039885e-02
      2.62990277e-02 3.32766660e-02 5.81094362e-02 1.01128861e-01
      2.34537467e-01 3.02570343e-01 3.02570343e-01 1.07510470e-01
      3.02570343e-01 1.66817620e-01 6.04916587e-02 8.26517195e-02
      6.32630363e-02 1.55656859e-01 2.52468288e-01 1.55795246e-01
      2.72094458e-01 1.83443338e-01 2.99432408e-02 2.70707812e-02
      2.49984115e-02 3.84261161e-02 8.37438703e-02 8.88354406e-02
      2.72094458e-01 2.72094458e-01 1.50423571e-01 1.18479766e-01
      5.46300821e-02 4.52061780e-02 2.61297673e-02 4.16286848e-02
      7.41086975e-02 1.96022585e-01 2.34410509e-01 2.72094458e-01
      2.41087452e-01 8.06146711e-02 1.28459930e-01 2.39001717e-02
      1.05930455e-01 1.57565191e-01 2.08671138e-01 2.72094458e-01
      2.72094458e-01 2.72094458e-01 1.76019400e-01 1.66778401e-01
      3.47241610e-02 8.24036151e-02 1.37330487e-01 1.91916183e-01
      2.66201824e-01 2.19373316e-01 2.03634024e-01 1.09100670e-01
      6.18404746e-02 4.88815978e-02 3.42316329e-02 6.04321845e-02
      1.17991611e-01 1.81659266e-01 1.56103402e-01 1.15209244e-01
      1.12412043e-01 1.38550922e-01 1.61502182e-01 7.12234601e-02
      8.16701502e-02 1.23803452e-01 1.89271957e-01 2.66201824e-01
      2.66201824e-01 2.66201824e-01 2.35793039e-01 1.06942922e-01
      6.90448806e-02 5.63720167e-02 6.65429384e-02 8.79408419e-02
      1.75569922e-01 2.66201824e-01 2.66201824e-01 2.66201824e-01
      2.09543064e-01 8.24164674e-02 9.34295803e-02 7.74221793e-02
      3.71385515e-02 2.06644069e-02 8.77880827e-02 8.53234157e-02
      1.84633642e-01 1.64441630e-01 1.75199255e-01 1.02577351e-01
      6.49772808e-02 1.51024342e-01 1.24003172e-01 2.64595181e-01
      2.64595181e-01 2.64595181e-01 2.04502195e-01 2.59647340e-01
      1.75465688e-01 1.93022192e-01 2.11295672e-02 3.54235359e-02
      2.64595181e-01 2.64595181e-01 1.27743766e-01 5.03687821e-02
      4.40128557e-02 3.92139107e-02 2.45366246e-02 8.98911580e-02
      2.64595181e-01 2.64595181e-01 2.64595181e-01 2.17235267e-01
      4.77092341e-02 5.81069775e-02 5.72141409e-02 9.80208740e-02
      1.36545628e-01 1.79628462e-01 2.35973552e-01 2.35973552e-01
      2.14227706e-01 7.01893270e-02 8.06066096e-02 4.82272059e-02
      8.96012187e-02 6.83338493e-02 1.69723287e-01 2.35973552e-01
      2.35973552e-01 1.91110551e-01 4.61985171e-02 2.79804338e-02
      2.51912847e-02 1.79648735e-02 1.78808630e-01 2.35973552e-01
      2.35973552e-01 2.35973552e-01 1.52600542e-01 5.38394265e-02
      4.35766950e-02 9.55882519e-02 1.85433656e-01 2.16529638e-01
      2.35973552e-01 2.35973552e-01 1.57996207e-01 1.98767021e-01
      1.33979291e-01 7.77644664e-02 1.49833187e-01 2.06518948e-01
      4.91317324e-02 9.69193354e-02 2.22561568e-01 2.54289895e-01
      2.22494438e-01 9.80835110e-02 3.40259261e-02 4.34173718e-02
      3.19364443e-02 3.71811017e-02 2.34437808e-02 8.51045772e-02
      2.54289895e-01 2.54289895e-01 2.54289895e-01 8.28792006e-02
      6.10439591e-02 3.99068259e-02 1.32279247e-01 1.34947538e-01
      1.84308231e-01 1.46100000e-01 2.54289895e-01 1.57050818e-01
      9.97095853e-02 1.67595565e-01 1.65990829e-01 6.92737326e-02
      3.13412249e-02 1.50028452e-01 2.54289895e-01 2.54289895e-01
      2.40227625e-01 2.54289895e-01 2.21465468e-01 1.33954570e-01</_>
    <_>
      7.30975941e-02 4.39085364e-02 8.89414698e-02 1.14569649e-01
      2.50420034e-01 2.50420034e-01 5.56711555e-02 2.65168846e-02
      3.88282388e-02 1.50153548e-01 2.47200906e-01 2.50420034e-01
      2.50420034e-01 2.35541835e-01 1.44753724e-01 2.60692909e-02
      5.24052307e-02 3.54040340e-02 4.62169759e-02 5.95495030e-02
      1.18516900e-01 1.81048498e-01 2.50420034e-01 2.50420034e-01
      1.92371473e-01 1.55148089e-01 8.17720592e-02 1.20284893e-01
      2.50420034e-01 2.50420034e-01 2.50420034e-01 1.87358230e-01
      1.42748728e-01 1.06541850e-01 1.39312297e-01 1.17222592e-01
      2.37415269e-01 2.50637800e-01 2.50637800e-01 2.50637800e-01
      5.49671650e-02 2.76746470e-02 2.80215237e-02 5.55791110e-02
      7.74034560e-02 2.50637800e-01 2.50637800e-01 2.44161800e-01
      1.44633859e-01 8.25096443e-02 9.64525193e-02 3.15485895e-02
      2.24448945e-02 1.15430884e-01 1.61115944e-01 2.50637800e-01
      2.50637800e-01 2.50637800e-01 5.40147498e-02 5.39353639e-02
      2.57796831e-02 4.63841818e-02 1.24277115e-01 2.04653308e-01
      2.50637800e-01 2.31314063e-01 1.58058330e-01 1.13030300e-01
      9.81098488e-02 4.29744646e-02 7.38720298e-02 2.24748164e-01
      2.29908988e-01 2.29908988e-01 2.29908988e-01 1.69406801e-01
      1.08365685e-01 1.19605377e-01 3.44043411e-02 1.66867655e-02
      6.51049912e-02 2.19627216e-01 2.29908988e-01 2.29908988e-01
      1.65568933e-01 1.20291881e-01 9.79909077e-02 1.03170551e-01
      5.75326085e-02 1.33642033e-01 2.29908988e-01 2.29908988e-01
      2.29908988e-01 1.35490865e-01 1.47480741e-01 1.25194699e-01
      5.36302589e-02 7.38586262e-02 1.58936173e-01 2.29908988e-01
      2.29908988e-01 2.29908988e-01 1.98568568e-01 1.21022530e-01
      1.50253102e-01 1.01893023e-01 9.91449431e-02 1.95040926e-01
      2.49683902e-01 2.48824179e-01 1.63346410e-01 8.81599709e-02
      6.67805076e-02 4.91330847e-02 6.43874258e-02 5.11684529e-02
      1.80687070e-01 2.49683902e-01 2.49683902e-01 2.49683902e-01
      9.90436450e-02 5.45023978e-02 4.17013280e-02 1.69274677e-02
      4.43947762e-02 1.80087209e-01 2.30547935e-01 1.79385930e-01
      2.24527508e-01 1.25403419e-01 9.99744311e-02 1.06936410e-01
      1.01882905e-01 1.43088624e-01 2.06247926e-01 2.49683902e-01
      2.49683902e-01 2.49683902e-01 1.32391959e-01 1.29014939e-01
      7.38774166e-02 6.55790046e-02 1.54550910e-01 2.34816700e-01
      2.50816941e-01 2.50816941e-01 2.12583557e-01 1.06272861e-01
      4.22374420e-02 3.02526746e-02 2.02411860e-02 2.91138422e-02
      1.31054938e-01 2.50816941e-01 2.50816941e-01 2.40952253e-01
      2.50816941e-01 1.65613487e-01 4.04840894e-02 4.11057733e-02
      4.17633131e-02 1.28316298e-01 2.50816941e-01 2.50816941e-01
      1.94850758e-01 1.19464964e-01 7.67047107e-02 4.76873033e-02
      5.22492193e-02 9.71730575e-02 1.70673594e-01 2.50816941e-01
      2.50816941e-01 1.64633930e-01 1.44339845e-01 4.14299890e-02
      4.35136408e-02 1.04738653e-01 1.40743881e-01 2.50287771e-01
      2.61291802e-01 2.59338856e-01 2.07524046e-01 2.61291802e-01
      1.66614011e-01 2.01880299e-02 3.15997489e-02 4.51945774e-02
      1.10812150e-01 2.61291802e-01 2.61291802e-01 1.02737270e-01
      8.17950293e-02 1.06438316e-01 4.16363440e-02 6.12812266e-02
      9.13592726e-02 2.48542309e-01 2.61291802e-01 2.61291802e-01
      1.34368330e-01 1.46055177e-01 3.39610279e-02 2.83790920e-02
      6.83433339e-02 9.59145650e-02 2.61291802e-01 2.61291802e-01
      2.09680989e-01 5.70658594e-02 8.45432281e-02 4.40124907e-02
      3.81952450e-02 5.01763672e-02 9.71277356e-02 2.61291802e-01
      2.50735134e-01 1.53379470e-01 2.49370169e-02 2.74701323e-02
      8.08350369e-02 6.65331110e-02 1.20266721e-01 2.29348406e-01
      2.50735134e-01 2.30220035e-01 8.88922438e-02 3.58707197e-02
      2.59919763e-02 4.60371710e-02 9.03195664e-02 2.18911842e-01
      2.50735134e-01 2.50735134e-01 2.50735134e-01 2.01680273e-01
      1.98542010e-02 2.72810403e-02 2.75557153e-02 5.65384366e-02
      1.09590814e-01 1.56856284e-01 2.50735134e-01 2.50735134e-01
      2.50735134e-01 7.95118362e-02 3.72564234e-02 1.79163571e-02
      6.73140883e-02 2.23327383e-01 2.50735134e-01 2.50735134e-01
      5.23821674e-02 1.23226605e-01 2.37533435e-01 2.37533435e-01
      1.46722317e-01 1.32658228e-01 1.61765590e-01 1.17222562e-01
      5.37887402e-02 8.76142755e-02 2.37533435e-01 2.37533435e-01
      2.37533435e-01 8.09404105e-02 7.49268904e-02 1.36979789e-01
      1.18900709e-01 1.34736598e-01 1.41125664e-01 1.68808684e-01
      2.37533435e-01 2.37533435e-01 1.15264103e-01 8.25607777e-02
      1.68268412e-01 1.05822608e-01 7.26915598e-02 2.20143780e-01
      2.37533435e-01 2.37533435e-01 2.24432632e-01 8.15159604e-02
      6.37461543e-02 1.66046768e-01 1.20703340e-01 2.32550159e-01
      1.03857592e-01 2.37329870e-01 2.37329870e-01 2.37329870e-01
      6.18822426e-02 4.71451283e-02 5.98744303e-02 5.30075319e-02
      1.88315988e-01 1.85433775e-01 2.37329870e-01 2.10242406e-01
      1.26446351e-01 6.98382929e-02 5.68740368e-02 9.02227014e-02
      1.15955241e-01 2.37329870e-01 2.37329870e-01 2.37329870e-01
      2.37329870e-01 1.61768466e-01 4.60232012e-02 3.79430987e-02
      1.08842984e-01 9.93905663e-02 2.37329870e-01 2.37329870e-01
      1.95137665e-01 1.65525541e-01 1.00654535e-01 3.30407247e-02
      7.88757801e-02 1.59186721e-01 1.88051760e-01 2.37329870e-01
      2.25410730e-01 2.25410730e-01 1.88001558e-01 1.08964697e-01
      1.01407379e-01 8.59217197e-02 1.27111390e-01 1.54872075e-01
      2.25410730e-01 2.25410730e-01 2.25410730e-01 2.12181136e-01
      1.48699313e-01 1.07373536e-01 1.34371817e-01 9.59469900e-02
      1.06578670e-01 2.25410730e-01 1.77198574e-01 1.31295919e-01
      1.00905538e-01 7.53584355e-02 7.01243207e-02 1.30020946e-01
      2.25410730e-01 2.25410730e-01 2.12956056e-01 2.25410730e-01
      1.49983227e-01 1.00352414e-01 5.14395423e-02 8.86245519e-02
      1.09971724e-01 2.16837078e-01 1.82998955e-01 2.25410730e-01
      1.61074877e-01 1.36652693e-01 1.66496202e-01 7.81446546e-02
      1.17006794e-01 1.60669491e-01 1.23900421e-01 1.93867505e-01
      2.21919417e-01 2.21919417e-01 2.21919417e-01 2.01328069e-01
      8.37109163e-02 1.58173949e-01 1.35814577e-01 1.39737159e-01
      2.21919417e-01 1.90050364e-01 1.92920506e-01 1.32870987e-01
      8.66103768e-02 2.14062110e-02 4.34769019e-02 8.82178843e-02
      1.97875425e-01 2.05745265e-01 2.21919417e-01 2.21919417e-01
      2.09473938e-01 1.34933919e-01 9.71258953e-02 9.68143567e-02
      9.81931016e-02 2.16599628e-01 2.09915668e-01 2.21919417e-01
      2.29401693e-01 1.87908456e-01 1.14585802e-01 9.68821123e-02
      1.03337377e-01 4.71480191e-02 9.33507159e-02 1.60313964e-01
      1.46550059e-01 2.29401693e-01 1.59600154e-01 1.03748240e-01
      1.33429229e-01 1.53569400e-01 1.89746141e-01 2.29401693e-01
      2.29401693e-01 2.29401693e-01 1.59876347e-01 1.34759098e-01
      1.27693623e-01 1.48829028e-01 1.38092563e-01 6.04461879e-02
      1.11716703e-01 1.53401792e-01 1.12748452e-01 1.56515360e-01
      1.38262510e-01 2.18654022e-01 2.29401693e-01 2.29401693e-01
      2.29401693e-01 1.94621891e-01 1.89887062e-01 1.32205874e-01
      2.45718196e-01 1.40707910e-01 7.37693459e-02 1.63692743e-01
      1.65614739e-01 1.66598275e-01 1.50772959e-01 1.37218118e-01
      2.45718196e-01 2.45718196e-01 1.57215789e-01 4.47554365e-02
      1.16708115e-01 1.00645795e-01 3.18999775e-02 5.38520887e-02
      1.69656232e-01 2.45718196e-01 1.16105072e-01 1.06824242e-01
      1.38134927e-01 2.37871394e-01 2.45718196e-01 2.45718196e-01
      1.28083467e-01 1.18177518e-01 1.44218609e-01 2.03221798e-01
      1.32884830e-01 8.15350711e-02 1.81873322e-01 2.45718196e-01
      5.76243177e-02 7.08317235e-02 1.56438068e-01 2.44398504e-01
      2.55100280e-01 2.55100280e-01 4.22523692e-02 6.01736233e-02
      5.25182746e-02 2.42848117e-02 1.09792896e-01 2.44649693e-01
      2.55100280e-01 2.55100280e-01 2.55100280e-01 1.82986185e-01
      6.82850406e-02 2.86417361e-02 2.83914674e-02 1.20923869e-01
      2.24038363e-01 2.55100280e-01 1.88546449e-01 1.36087343e-01
      1.13156542e-01 2.23605216e-01 2.55100280e-01 7.19579682e-02
      7.88187832e-02 1.35842264e-01 1.54807463e-01 2.18089163e-01
      2.15041727e-01 1.75516069e-01 1.47621349e-01 1.13187924e-01
      8.19984376e-02 7.56081566e-02 8.06792304e-02 8.84291753e-02
      1.45603970e-01 1.01300128e-01 7.59896189e-02 9.60255936e-02
      8.34685639e-02 9.74123105e-02 2.06592977e-01 1.89279333e-01
      1.66516200e-01 2.05490977e-01 1.87565476e-01 1.44722372e-01
      1.54121146e-01 8.70242342e-02 1.24296769e-01 1.93682700e-01
      1.78621575e-01 2.31503651e-01 1.59069389e-01 1.07623599e-01
      1.32552922e-01 1.45950377e-01 1.31617934e-01 2.24954456e-01
      1.80883154e-01 2.31503651e-01 2.31503651e-01 1.40308857e-01
      6.69632852e-02 1.06988952e-01 1.60433426e-01 1.14428066e-01
      2.31503651e-01 2.31503651e-01 2.31503651e-01 2.03894302e-01
      2.64045864e-01 1.85345739e-01 1.32760167e-01 9.35074687e-02
      5.45208193e-02 8.76354650e-02 1.76654056e-01 1.59013972e-01
      2.31802762e-01 2.64045864e-01 1.31385565e-01 7.91146308e-02
      5.40477261e-02 5.44373393e-02 8.85801986e-02 2.20967963e-01
      2.64045864e-01 2.22077891e-01 1.25740871e-01 4.24812771e-02
      5.80522344e-02 7.99045637e-02 7.01494366e-02 1.92167237e-01
      2.64045864e-01 2.64045864e-01 1.43394738e-01 1.56715840e-01
      6.14006035e-02 4.71615009e-02 4.75375615e-02 8.38177353e-02
      1.10197753e-01 2.64045864e-01 2.64045864e-01 2.24852219e-01
      1.96546122e-01 1.29588798e-01 4.91842888e-02 4.65048701e-02
      6.44050390e-02 1.02224663e-01 2.59065330e-01 2.68040895e-01
      1.70084134e-01 1.47928983e-01 8.83779153e-02 4.26343754e-02
      3.40197012e-02 7.94833079e-02 1.07056700e-01 2.68040895e-01
      2.68040895e-01 1.72237024e-01 1.68165013e-01 7.08045736e-02
      3.19393240e-02 3.26533541e-02 6.30284324e-02 1.20904528e-01
      2.68040895e-01 2.68040895e-01 2.37242475e-01 1.34583235e-01
      3.50962393e-02 2.56491862e-02 2.80074161e-02 6.32147640e-02
      2.43429303e-01 2.68040895e-01 2.68040895e-01 2.22139493e-01
      1.70487419e-01 9.13479626e-02 4.68094200e-02 2.46633142e-02
      4.18552011e-02 8.75594243e-02 2.32869908e-01 2.32869908e-01
      2.32869908e-01 2.32869908e-01 2.09912345e-01 9.40719172e-02
      8.18042308e-02 6.65261447e-02 5.75946830e-02 2.32869908e-01
      1.83992490e-01 2.32869908e-01 1.46340117e-01 7.32793808e-02
      4.79283743e-02 4.67319451e-02 5.08165434e-02 2.24301368e-01
      2.32869908e-01 2.32869908e-01 2.32869908e-01 2.32869908e-01
      2.32869908e-01 1.22217782e-01 1.22850627e-01 6.03567474e-02
      1.01859726e-01 2.11370468e-01 1.52373791e-01 2.32869908e-01
      2.19191507e-01 1.60019457e-01 1.12741373e-01 1.20729290e-01
      1.04288869e-01 4.34958935e-02 9.17849764e-02 1.33467004e-01
      1.08259998e-01 2.19191507e-01 2.19191507e-01 2.19191507e-01
      2.19191507e-01 2.19191507e-01 1.85097814e-01 1.10955998e-01
      1.89312920e-01 1.37512237e-01 1.88266337e-01 1.71092868e-01
      1.63170949e-01 1.56809643e-01 9.54321697e-02 5.48220836e-02
      6.46800548e-02 9.22072083e-02 9.85989720e-02 2.19191507e-01
      2.19191507e-01 2.10898310e-01 1.81940228e-01 2.19191507e-01
      1.93961054e-01 1.53866723e-01 2.19191507e-01 1.51963025e-01
      1.44780010e-01 1.62230790e-01 1.56256407e-01 1.60428554e-01
      2.63211608e-01 1.41711056e-01 1.28585622e-01 2.05273762e-01
      1.26278073e-01 1.01489902e-01 1.12170488e-01 7.16450512e-02
      1.37998268e-01 1.76911354e-01 5.13444841e-02 1.19688131e-01
      1.99311867e-01 1.51200861e-01 2.17800200e-01 1.46771997e-01
      7.10394159e-02 7.14170188e-02 1.23833254e-01 1.73222467e-01
      2.88878173e-01 2.88878173e-01 1.92387253e-01 1.05385646e-01
      7.67883807e-02 4.16455939e-02 6.18683547e-02 4.19671275e-02
      6.71911687e-02 2.88878173e-01 2.88878173e-01 2.31672809e-01
      1.37809500e-01 1.37434959e-01 1.80293053e-01 2.52370805e-01
      2.52370805e-01 1.35043442e-01 8.60875994e-02 1.04563542e-01
      1.08424149e-01 1.49097383e-01 2.17877612e-01 1.99592471e-01
      1.36049420e-01 1.75190389e-01 1.33542478e-01 7.19882101e-02
      4.32067066e-02 7.41576999e-02 2.49748737e-01 1.22292601e-01
      1.06744714e-01 1.16512552e-01 9.50224400e-02 1.02243565e-01
      2.52370805e-01 2.52370805e-01 2.52370805e-01 2.52370805e-01
      1.59582883e-01 1.34562045e-01 1.72423512e-01 1.46187291e-01
      1.39868215e-01 7.84149766e-02 1.38648257e-01 2.14699760e-01
      8.15827325e-02 1.00916043e-01 1.69414237e-01 1.31749049e-01
      1.56652421e-01 2.68094569e-01 1.58308059e-01 1.82910860e-01
      1.40382931e-01 7.09194914e-02 3.69899869e-02 3.86483259e-02
      5.48582748e-02 1.20473839e-01 2.68094569e-01 2.68094569e-01
      2.68094569e-01 1.09801613e-01 3.64519432e-02 9.92663205e-02
      1.74199700e-01 1.71894595e-01 2.30959043e-01 2.68094569e-01
      1.50556043e-01 1.02609739e-01 7.31840581e-02 4.79233228e-02
      5.74083142e-02 4.80886847e-02 8.51764977e-02 1.61446676e-01
      2.68094569e-01 2.68094569e-01 2.68094569e-01 1.22447476e-01
      7.37341046e-02 1.04357339e-02 2.42620427e-02 2.20720340e-02
      6.48128241e-02 2.69990176e-01 2.69990176e-01 2.69990176e-01
      1.15198173e-01 1.11152075e-01 1.33057823e-02 3.40298712e-02
      3.01989950e-02 5.57310954e-02 1.39996842e-01 2.69990176e-01
      2.69990176e-01 2.18969792e-01 4.42382731e-02 1.81741267e-02
      6.43638298e-02 5.15295453e-02 1.01075269e-01 2.69990176e-01
      2.69990176e-01 2.69990176e-01 1.20863058e-01 9.40215215e-02
      2.61679664e-02 8.43247026e-02 3.82909365e-02 8.53019953e-02
      2.69990176e-01 2.69990176e-01 2.61786520e-01 1.76600561e-01
      1.42517015e-01 2.55277362e-02 2.68932655e-02 4.39855158e-02
      5.03798239e-02 9.82470661e-02 2.38579944e-01 2.50842780e-01
      2.31167242e-01 1.75219283e-01 4.07083929e-02 2.21810117e-02
      3.41137648e-02 3.99944820e-02 2.13461429e-01 2.50842780e-01
      2.46757835e-01 2.04555288e-01 1.41730353e-01 4.14167866e-02
      6.90742582e-02 6.06933460e-02 5.28786145e-02 2.26706803e-01
      2.50842780e-01 2.50842780e-01 2.50842780e-01 1.83700070e-01
      5.64120561e-02 2.92059630e-02 3.44505236e-02 5.11815883e-02
      1.94927484e-01 2.50842780e-01 2.50842780e-01 2.50842780e-01
      1.14849687e-01 5.80397695e-02 5.45771681e-02 4.80673239e-02
      5.89505099e-02 1.81536123e-01 2.39076898e-01 1.74132258e-01
      1.71368599e-01 1.74969941e-01 1.42447859e-01 1.30968198e-01
      1.03292651e-01 7.99577981e-02 1.20791666e-01 1.60704404e-01
      1.39519826e-01 1.53478846e-01 1.56684145e-01 1.37207896e-01
      1.74392685e-01 1.72637656e-01 1.15140431e-01 1.61217496e-01
      2.39076898e-01 2.39076898e-01 1.78118050e-01 2.39076898e-01
      2.39076898e-01 2.39076898e-01 2.39076898e-01 1.38529867e-01
      9.98775512e-02 1.79901734e-01 1.86029613e-01 2.00685292e-01
      1.41039968e-01 1.18795261e-01 1.39032274e-01 1.02356702e-01
      6.15580902e-02 7.35338852e-02 8.59934017e-02 1.47169381e-01
      1.68117046e-01 2.15087026e-01 1.51651382e-01 1.30135551e-01
      1.04196683e-01 7.49474615e-02 7.72074461e-02 9.57007259e-02
      2.67962217e-01 2.84850597e-01 2.84850597e-01 2.10725367e-01
      1.67544156e-01 1.01371773e-01 4.31405790e-02 4.49864529e-02
      1.05604924e-01 2.52244800e-01 2.84850597e-01 2.84850597e-01
      1.14176944e-01 6.49566725e-02 3.49643379e-02 1.52777210e-02
      3.87865789e-02 9.36090052e-02 2.84850597e-01 2.84850597e-01
      1.39953539e-01 7.22880140e-02 2.21061781e-02 3.53431702e-02
      2.08924841e-02 5.93897589e-02 2.32590467e-01 2.92412162e-01
      1.75957993e-01 8.28626826e-02 2.45639440e-02 5.41147077e-03
      1.30418614e-02 9.19068698e-03 7.40091652e-02 2.99033910e-01
      2.99033910e-01 2.29537800e-01 2.11757511e-01 5.36193959e-02
      1.14362352e-02 1.42290117e-02 5.62929269e-03 2.40958743e-02
      9.90862697e-02 2.99033910e-01 2.99033910e-01 2.83650726e-01
      6.47414923e-02 1.42294271e-02 7.66823441e-03 9.24345665e-03
      7.96573311e-02 2.08964899e-01 2.99033910e-01 2.99033910e-01
      7.39712864e-02 2.35913713e-02 1.03032151e-02 1.39022293e-02
      2.65513416e-02 1.59769461e-01 2.51788229e-01 2.51788229e-01
      2.13935420e-01 7.99514428e-02 6.17788583e-02 9.82859954e-02
      1.25754654e-01 7.89581910e-02 1.40095308e-01 1.48906410e-01
      8.08670223e-02 8.21873993e-02 2.51788229e-01 1.26104996e-01
      6.35167360e-02 2.46724654e-02 9.44561511e-02 2.51788229e-01
      2.51788229e-01 2.51788229e-01 2.51788229e-01 1.94783255e-01
      2.51788229e-01 2.51788229e-01 1.31800473e-01 1.76593766e-01
      2.21725062e-01 2.51788229e-01 6.59643710e-02 1.36724442e-01
      2.39399131e-02 5.62061071e-02 1.24973655e-01 2.08136201e-01
      2.47361138e-01 2.50082880e-01 1.48798451e-01 5.43384627e-02
      3.73643376e-02 1.93479341e-02 5.20840362e-02 5.35395704e-02
      1.72617257e-01 2.07427144e-01 2.50082880e-01 2.50082880e-01
      1.85340911e-01 9.93526503e-02 6.91392347e-02 5.34317717e-02
      1.84397027e-01 2.50082880e-01 2.50082880e-01 1.88208461e-01
      1.12942360e-01 4.10461240e-02 3.57423536e-02 3.67895328e-02
      9.01853219e-02 9.39841866e-02 2.50082880e-01 2.50082880e-01
      1.78007960e-01 2.50082880e-01 2.50082880e-01 1.35999531e-01
      1.72205474e-02 2.78369766e-02 4.79840934e-02 7.40793273e-02
      1.14595674e-01 2.55207062e-01 2.55207062e-01 2.34240830e-01
      1.43246517e-01 3.03396750e-02 2.65777577e-02 3.86464149e-02
      3.67430300e-02 7.58319721e-02 2.55207062e-01 2.55207062e-01
      2.55207062e-01 1.53412253e-01 2.98950989e-02 8.32617655e-02
      4.24760655e-02 9.67426449e-02 1.34369358e-01 1.78339437e-01
      2.55207062e-01 2.55207062e-01 2.35095039e-01 5.67549430e-02
      6.12441823e-02 2.05951370e-02 6.94044456e-02 1.16368450e-01
      2.55207062e-01 2.55207062e-01 2.55207062e-01 2.55207062e-01
      3.52017805e-02 1.71888564e-02 2.94087250e-02 2.93739121e-02
      3.60199660e-02 2.52686113e-01 2.52686113e-01 2.52686113e-01
      1.73490867e-01 6.03762716e-02 3.11860479e-02 2.58398335e-02
      2.36462653e-02 4.63746227e-02 1.79788366e-01 2.52686113e-01
      2.52686113e-01 2.48245940e-01 3.87102216e-02 4.66069803e-02
      4.83902581e-02 7.65045360e-02 1.14611924e-01 2.52686113e-01
      2.52686113e-01 2.52686113e-01 1.99203566e-01 4.36864048e-02
      1.02769673e-01 1.15601987e-01 1.71251342e-01 1.41334996e-01
      1.97207689e-01 2.52686113e-01 2.52686113e-01 2.08943784e-01
      7.41208121e-02 7.12810308e-02 9.64928344e-02 1.17352076e-01
      5.92216104e-02 1.33591488e-01 2.61850178e-01 2.61850178e-01
      1.13476917e-01 1.59665868e-01 1.40256599e-01 1.72265485e-01
      2.39274725e-01 6.57517463e-02 1.02701314e-01 2.61850178e-01
      2.25405350e-01 1.59765780e-01 3.60062011e-02 5.55178486e-02
      1.33185983e-01 1.54541939e-01 7.56988376e-02 1.64181307e-01
      2.61850178e-01 2.61850178e-01 1.11662433e-01 7.85374194e-02
      3.51074487e-02 9.30302441e-02 1.12281658e-01 1.31213054e-01
      2.40714312e-01 2.61850178e-01 2.61850178e-01 1.76812112e-01
      1.77947342e-01 1.06577672e-01 8.02906379e-02 1.10324338e-01
      6.20275028e-02 4.95029204e-02 1.62914231e-01 1.77986249e-01
      2.34936982e-01 1.85438454e-01 5.69641851e-02 2.67196819e-02
      8.24039280e-02 1.09978393e-01 9.88649130e-02 1.38577655e-01
      2.52492666e-01 2.52492666e-01 6.67720884e-02 3.49936858e-02
      4.58814092e-02 1.45180449e-01 2.52492666e-01 2.08931863e-01
      2.52492666e-01 2.52492666e-01 2.06159875e-01 2.66916342e-02
      3.11866645e-02 3.79875712e-02 1.68067202e-01 2.52492666e-01
      2.52492666e-01 2.52492666e-01 2.38841653e-01 1.28260449e-01
      1.45798028e-01 3.34177874e-02 2.24939361e-02 5.59282340e-02
      6.11898191e-02 1.05386138e-01 1.96808070e-01 2.84542263e-01
      2.84542263e-01 2.84542263e-01 1.14951305e-01 4.97698784e-02
      3.02237179e-02 2.17522904e-02 4.88672368e-02 1.14096738e-01
      2.84542263e-01 2.84542263e-01 3.36528458e-02 2.35150922e-02
      2.98209284e-02 8.41799900e-02 1.68235630e-01 2.84542263e-01
      2.84542263e-01 2.49789461e-01 1.14535265e-01 9.52934250e-02
      5.65125421e-02 6.50702938e-02 6.31219372e-02 5.36421202e-02
      2.47301802e-01 2.84542263e-01 1.45984814e-01 1.34348154e-01
      2.76659876e-01 2.76659876e-01 1.37137592e-01 3.71464603e-02
      1.09066747e-01 1.42428309e-01 2.05858603e-01 2.36029640e-01
      2.76659876e-01 2.76659876e-01 2.76659876e-01 2.76659876e-01
      8.99371207e-02 1.90765321e-01 1.47904634e-01 2.30912596e-01
      8.45566317e-02 2.75636524e-01 1.81453943e-01 8.80882591e-02
      1.00306585e-01 4.17977273e-02 4.09803279e-02 8.41697156e-02
      1.07918955e-01 7.93782622e-02 1.46337867e-01 1.92110449e-01
      8.52397904e-02 8.08621570e-02 4.18547541e-02 5.25320023e-02
      4.18699197e-02 6.05833642e-02 6.47550598e-02 1.38834268e-01
      4.37955484e-02 1.80755574e-02 1.10779427e-01 2.80423701e-01
      2.80423701e-01 1.12397984e-01 3.33577991e-02 1.54760452e-02
      1.54734636e-02 2.93613560e-02 4.56075072e-02 7.19593167e-02
      2.80423701e-01 2.80423701e-01 1.25528693e-01 1.38252497e-01
      2.60946453e-01 7.68968239e-02 3.50518450e-02 4.89571504e-02
      1.55259967e-01 2.80423701e-01 2.80423701e-01 1.67032704e-01
      8.42084512e-02 4.13094535e-02 1.52401989e-02 3.59533839e-02
      2.98317820e-02 1.45812422e-01 2.80423701e-01 2.80423701e-01
      2.80423701e-01 1.90500036e-01 1.28454268e-01 5.31581119e-02
      2.21590176e-02 5.11894524e-02 4.17383425e-02 8.77707079e-02
      1.46398440e-01 1.17918216e-01 2.87478745e-01 2.87478745e-01
      1.68096513e-01 5.20067252e-02 3.46875601e-02 2.52505578e-02
      5.65056428e-02 1.10159673e-01 1.60565197e-01 2.87478745e-01
      2.87478745e-01 2.25251779e-01 3.60682160e-02 3.59132066e-02
      6.69251010e-02 1.08055711e-01 1.88375443e-01 1.86309874e-01
      2.87478745e-01 2.87478745e-01 9.77353454e-02 9.09845307e-02
      2.50023212e-02 2.03470234e-02 3.53374854e-02 6.54582083e-02
      1.33299276e-01 2.87478745e-01 2.87478745e-01 1.79769546e-01
      6.83375448e-02 3.88031378e-02 5.74121550e-02 1.26350969e-01
      1.31883204e-01 2.33340457e-01 2.09329754e-01 2.14700848e-01
      1.93612576e-01 6.20228723e-02 8.31592679e-02 8.98608565e-02
      1.81234345e-01 1.58122972e-01 2.18212649e-01 2.39649579e-01
      2.35838398e-01 1.36031628e-01 1.55673265e-01 1.44008780e-02
      3.39286812e-02 1.08141445e-01 9.45611149e-02 2.38262877e-01
      2.39649579e-01 2.39649579e-01 2.23583922e-01 1.15238830e-01
      2.18755528e-02 4.85968031e-02 1.15552239e-01 1.33584142e-01
      2.39649579e-01 2.39649579e-01 2.39649579e-01 1.72053218e-01
      3.24233286e-02 4.89337333e-02 9.03147459e-02 1.34004712e-01
      1.01414762e-01 1.98797435e-01 2.72595257e-01 2.72595257e-01
      5.44351675e-02 4.46031354e-02 2.71693300e-02 6.10550828e-02
      9.71459597e-02 1.84885144e-01 2.72595257e-01 2.72595257e-01
      2.72595257e-01 6.78007528e-02 7.01595545e-02 2.88134310e-02
      3.22269909e-02 7.25448355e-02 1.27587199e-01 2.38853768e-01
      2.72595257e-01 2.17192218e-01 8.84948596e-02 7.00802431e-02
      2.04438828e-02 3.55446227e-02 1.16950966e-01 1.66054860e-01
      2.72595257e-01 2.72595257e-01 2.72595257e-01 5.71858250e-02
      2.26772036e-02 9.73625388e-03 2.02542190e-02 7.82944933e-02
      2.02372611e-01 2.42105275e-01 2.57175386e-01 2.57175386e-01
      8.55908319e-02 2.47078408e-02 1.16499318e-02 3.11247371e-02
      7.67955184e-02 2.19282240e-01 2.57175386e-01 2.57175386e-01
      2.27517024e-01 1.06353946e-01 2.54128259e-02 3.99276707e-03
      1.72211789e-02 5.81685007e-02 1.16275869e-01 2.57175386e-01
      2.57175386e-01 2.57175386e-01 5.17305508e-02 5.17964214e-02
      1.80372763e-02 4.57841083e-02 8.47667903e-02 2.35593870e-01
      2.57175386e-01 2.57175386e-01 2.57175386e-01 1.22019768e-01
      1.81597583e-02 1.10859089e-02 2.59913206e-02 4.92500477e-02
      1.77312806e-01 2.97998130e-01 2.97998130e-01 1.09640621e-01
      5.48805334e-02 1.48792220e-02 1.51680335e-02 2.06834339e-02
      4.14638631e-02 1.41587034e-01 2.97998130e-01 2.97998130e-01
      6.55193403e-02 3.42927203e-02 3.15349735e-02 2.40577199e-02
      4.52014916e-02 9.28861424e-02 2.97998130e-01 2.97998130e-01
      2.75797218e-01 1.15586959e-01 5.43563813e-02 3.21789621e-03
      8.61170515e-03 1.13560101e-02 7.40273520e-02 2.97998130e-01
      2.97998130e-01 2.97998130e-01 9.28367898e-02 2.68359706e-02
      8.28814283e-02 5.18250205e-02 6.75328299e-02 7.77183250e-02
      1.43787131e-01 3.03055167e-01 2.89419979e-01 1.22836374e-01
      1.01486467e-01 1.23307541e-01 6.29698113e-02 5.74026108e-02
      6.86657131e-02 6.95349947e-02 8.09630230e-02 5.38064241e-02
      8.93628448e-02 1.40586331e-01 3.26682441e-02 2.56274436e-02
      2.47844141e-02 1.86844170e-01 3.03055167e-01 3.03055167e-01
      3.03055167e-01 3.03055167e-01 1.55926257e-01 5.47668636e-02
      5.95269501e-02 1.93980280e-02 9.33017805e-02 1.12892739e-01
      1.40590876e-01 2.84126669e-01 3.03055167e-01 1.90509677e-01
      2.75972895e-02 6.56077787e-02 1.81660190e-01 2.54782081e-01
      2.54782081e-01 1.20503470e-01 1.20152384e-01 6.47820011e-02
      1.78658478e-02 4.10943776e-02 3.85180488e-02 1.50189146e-01
      2.54782081e-01 2.54782081e-01 2.40871131e-01 2.39272788e-01
      4.51456308e-02 2.56107282e-02 1.62815563e-02 4.55248840e-02
      1.93240672e-01 2.54782081e-01 2.54782081e-01 1.31285220e-01
      1.14814699e-01 3.09324693e-02 1.64740272e-02 2.34970786e-02
      7.02506825e-02 2.54782081e-01 2.54782081e-01 2.54782081e-01
      2.35973299e-01 2.54782081e-01 2.19948739e-02 1.00424634e-02
      8.52741599e-02 9.14142653e-02 1.22148931e-01 2.56386280e-01
      2.63702959e-01 2.63702959e-01 2.63702959e-01 1.10925786e-01
      4.76805083e-02 1.23410702e-01 6.91580027e-02 4.10626084e-02
      5.48791066e-02 1.28714055e-01 2.63702959e-01 2.63702959e-01
      2.63702959e-01 1.63242191e-01 3.41508761e-02 1.00334086e-01
      2.34201550e-01 2.63635963e-01 2.63702959e-01 2.32197165e-01
      2.46822372e-01 3.79806980e-02 2.89602876e-02 5.43072373e-02
      5.49999401e-02 4.57490198e-02 6.25685751e-02 9.73228067e-02
      1.51322857e-01 1.02010325e-01 1.32794380e-01 8.18845406e-02
      8.35766867e-02 1.18878493e-02 2.06973199e-02 4.45857532e-02
      8.73726383e-02 2.77854621e-01 2.49552727e-01 2.77854621e-01
      1.55207068e-01 8.03368315e-02 1.29039949e-02 4.12869491e-02
      5.54323085e-02 1.32718980e-01 2.77854621e-01 2.77854621e-01
      2.77854621e-01 1.93933442e-01 3.09971459e-02 1.21435253e-02
      2.16220263e-02 2.23425739e-02 4.85158190e-02 1.86266884e-01
      2.38894939e-01 2.40528822e-01 9.92801636e-02 2.32109521e-02
      1.20228706e-02 3.18502933e-02 1.57007221e-02 1.43649936e-01
      2.77854621e-01 2.77854621e-01 2.77854621e-01 1.51485622e-01
      7.29327053e-02 2.37960666e-02 6.21782318e-02 7.44631961e-02
      1.46698654e-01 1.95755243e-01 2.18580633e-01 1.69177845e-01
      1.13658458e-01 8.44014809e-02 4.71281484e-02 1.34059176e-01
      2.17390895e-01 2.34679937e-01 2.03167453e-01 2.30580181e-01
      1.47848353e-01 6.50189519e-02 2.32894178e-02 2.39755064e-02
      6.97948337e-02 5.99130802e-02 2.51387924e-01 2.51387924e-01
      2.51387924e-01 2.51387924e-01 1.09392181e-01 3.03049702e-02
      9.39036086e-02 2.49642462e-01 2.51387924e-01 2.51387924e-01
      2.40481764e-01 1.71314955e-01 1.39659494e-01 5.82261570e-02
      4.56078723e-02 3.95354964e-02 6.96963593e-02 1.11788288e-01
      1.28573775e-01 2.14399159e-01 2.53149271e-01 2.44996399e-01
      3.17443646e-02 7.81103522e-02 2.71495488e-02 2.89368201e-02
      8.97369683e-02 2.53149271e-01 2.53149271e-01 2.53149271e-01
      2.53149271e-01 5.02808318e-02 2.57978272e-02 8.66555572e-02
      1.38346702e-01 1.29356191e-01 2.53149271e-01 1.31902143e-01
      2.37906650e-01 2.53149271e-01 4.60450202e-02 1.13265969e-01
      2.99045183e-02 2.10908465e-02 6.15016818e-02 1.81272507e-01
      2.53149271e-01 2.53149271e-01 2.53149271e-01 1.51213363e-01
      3.56790796e-02 3.71961854e-02 3.45889442e-02 1.01332717e-01
      2.56093830e-01 2.56093830e-01 2.56093830e-01 1.06029205e-01
      2.45935433e-02 1.50839882e-02 2.41664648e-02 2.11958475e-02
      1.03050932e-01 2.48081565e-01 2.56093830e-01 2.56093830e-01
      1.40008137e-01 5.37261702e-02 1.13893509e-01 3.09102330e-02
      4.61205170e-02 1.20151944e-01 2.56093830e-01 2.56093830e-01
      2.56093830e-01 2.31319726e-01 1.29518420e-01 4.85169962e-02
      3.27061377e-02 6.44711182e-02 1.50443330e-01 2.56093830e-01
      2.56093830e-01 2.56093830e-01 1.25605732e-01 8.58458728e-02
      2.17402969e-02 1.20408507e-02 1.31164519e-02 1.25984475e-01
      1.49864435e-01 2.38784507e-01 2.38784507e-01 2.38784507e-01
      1.13997810e-01 3.26530300e-02 2.03031115e-02 2.86656935e-02
      9.95626748e-02 1.07773259e-01 1.55310228e-01 1.86032981e-01
      2.04166979e-01 7.03618228e-02 6.15051389e-02 2.08531506e-02
      8.29652995e-02 2.38784507e-01 2.38784507e-01 2.38784507e-01
      2.38784507e-01 2.29822859e-01 1.49835736e-01 9.96538028e-02
      1.38327554e-01 2.38784507e-01 2.38784507e-01 2.38784507e-01
      2.38784507e-01 1.95871741e-01 1.57972842e-01 1.01731919e-01</_>
    <_>
      2.31372923e-01 1.14925072e-01 3.98222059e-02 5.65504432e-02
      1.93848703e-02 9.84048191e-03 9.48275998e-02 1.42910600e-01
      2.78110951e-01 2.78110951e-01 1.86849952e-01 1.64786391e-02
      1.09518301e-02 1.61361173e-02 1.51652917e-02 4.79869656e-02
      1.73865333e-01 2.78110951e-01 2.64348119e-01 7.63071701e-02
      2.89800633e-02 1.32124191e-02 1.86548401e-02 3.22529897e-02
      2.34722435e-01 2.78110951e-01 2.78110951e-01 2.78110951e-01
      1.94212288e-01 7.87997767e-02 2.82525588e-02 4.19047177e-02
      2.68013272e-02 1.68270260e-01 2.78110951e-01 2.78110951e-01
      2.49170572e-01 2.49081954e-01 1.95945837e-02 4.76848409e-02
      5.63138500e-02 5.54826967e-02 6.52321354e-02 1.08135924e-01
      2.49170572e-01 2.49170572e-01 1.84995010e-01 3.09177767e-02
      6.50506094e-02 5.83646595e-02 4.31671403e-02 6.98078200e-02
      6.87905848e-02 2.49170572e-01 2.49170572e-01 2.49170572e-01
      1.27980158e-01 1.35921970e-01 1.22224882e-01 8.35067555e-02
      7.37107322e-02 1.32913709e-01 2.49170572e-01 2.49170572e-01
      2.49170572e-01 2.30978891e-01 2.49170572e-01 1.53025687e-01
      1.13908514e-01 8.83898139e-02 7.48295933e-02 2.29010522e-01
      2.42603734e-01 1.49529040e-01 3.82417217e-02 1.96920428e-02
      4.37057316e-02 1.90866813e-02 4.01042849e-02 7.23597854e-02
      2.42603734e-01 2.42603734e-01 1.59036860e-01 7.47170076e-02
      5.32572605e-02 8.04599151e-02 4.66420017e-02 7.13008940e-02
      1.20495416e-01 2.42603734e-01 2.20791057e-01 2.42603734e-01
      2.19487742e-01 1.71107501e-01 8.12205225e-02 1.60423785e-01
      2.42603734e-01 2.13173389e-01 1.96959943e-01 1.06703945e-01
      1.58759728e-01 2.30208680e-01 1.74205750e-01 1.12272456e-01
      2.28045121e-01 2.42603734e-01 2.04161540e-01 1.45917207e-01
      2.31480256e-01 2.11184412e-01 9.96630564e-02 6.39917478e-02
      7.68130049e-02 5.26652299e-02 4.37307172e-02 8.56946558e-02
      1.88804075e-01 2.65208125e-01 2.76287466e-01 1.94882631e-01
      8.27772394e-02 8.42682570e-02 3.47262658e-02 1.48925250e-02
      5.55329807e-02 1.15096465e-01 1.87184259e-01 2.69811213e-01
      2.76287466e-01 1.93629310e-01 1.15455665e-01 1.14333943e-01
      8.52300823e-02 1.08262464e-01 2.16542900e-01 2.38749757e-01
      2.76287466e-01 2.76287466e-01 1.40542135e-01 1.22512609e-01
      8.13214406e-02 3.37096490e-02 1.03376850e-01 1.95656523e-01
      1.21596970e-01 3.08923155e-01 3.08923155e-01 1.10840440e-01
      6.45765141e-02 1.68606211e-02 7.06381770e-03 2.06442624e-02
      5.59766851e-02 7.97291994e-02 2.84822375e-01 3.08923155e-01
      2.15609938e-01 8.42391998e-02 5.39629944e-02 1.50828129e-02
      1.35341324e-02 4.34663929e-02 1.38527051e-01 3.08923155e-01
      3.08923155e-01 1.27340689e-01 5.43758869e-02 3.08883060e-02
      1.92253441e-02 3.53908055e-02 5.98399639e-02 2.26669073e-01
      3.08923155e-01 3.08923155e-01 1.72305271e-01 9.39946026e-02
      3.80952209e-02 1.79153048e-02 9.19651985e-03 1.05773225e-01
      5.17968722e-02 1.05880447e-01 2.34691143e-01 1.81373447e-01
      1.39056623e-01 2.74892896e-01 1.55875742e-01 1.55628055e-01
      5.25685623e-02 5.44945858e-02 1.20193753e-02 5.65962829e-02
      4.01204862e-02 1.23834379e-01 2.83931911e-01 2.83931911e-01
      2.83931911e-01 1.19181976e-01 2.13576064e-01 2.57784605e-01
      1.57077059e-01 1.73588619e-01 1.52117550e-01 1.11701116e-01
      1.20683864e-01 1.42657712e-01 1.21794313e-01 9.30123329e-02
      3.02652586e-02 3.73658948e-02 4.13432121e-02 4.67839725e-02
      1.17834523e-01 2.83931911e-01 2.83931911e-01 1.66040987e-01
      6.26263991e-02 7.78197264e-03 4.19734493e-02 2.31277142e-02
      4.59255055e-02 9.03158039e-02 2.91149497e-01 2.91149497e-01
      1.38514236e-01 1.06024355e-01 2.84368992e-02 1.17034473e-01
      5.53000458e-02 4.24234830e-02 9.63107497e-02 2.43410766e-01
      2.91149497e-01 2.17961952e-01 8.64687115e-02 1.13270879e-02
      3.57543193e-02 1.49413403e-02 7.68851815e-03 3.11110038e-02
      2.91149497e-01 2.91149497e-01 2.85046548e-01 1.78608999e-01
      3.55583429e-02 9.39588547e-02 4.57627587e-02 1.64982565e-02
      4.47760709e-02 2.89129287e-01 2.91149497e-01 2.91149497e-01
      1.72301427e-01 9.50242504e-02 5.14937490e-02 1.90790221e-02
      3.33909243e-02 4.19637784e-02 1.68964595e-01 2.60472745e-01
      2.60472745e-01 2.60472745e-01 1.26644731e-01 1.05653919e-01
      2.42815260e-02 4.83724065e-02 2.74315886e-02 2.02702478e-01
      2.60472745e-01 2.60472745e-01 1.79888785e-01 1.15589127e-01
      8.59882310e-02 3.94590497e-02 1.66468155e-02 7.04767704e-02
      2.60472745e-01 2.60472745e-01 2.60472745e-01 1.91883981e-01
      5.04958741e-02 6.02278896e-02 1.58536471e-02 1.56075163e-02
      5.05277961e-02 2.60472745e-01 2.60472745e-01 2.60472745e-01
      2.58821458e-01 1.22468859e-01 1.20321773e-01 9.00143832e-02
      1.23385221e-01 8.71347114e-02 9.26585868e-02 1.33941367e-01
      2.28296623e-01 2.10441440e-01 1.21383257e-01 1.80121824e-01
      2.44012654e-01 2.21768066e-01 1.96248382e-01 1.19761609e-01
      1.18994556e-01 2.58821458e-01 1.70683652e-01 5.44830821e-02
      3.44592892e-02 2.61972100e-02 5.10560796e-02 5.01156561e-02
      1.55419260e-01 2.58821458e-01 2.58821458e-01 1.13919303e-01
      5.97904138e-02 5.68203777e-02 9.36567783e-02 1.05984241e-01
      1.38625339e-01 2.58821458e-01 2.58821458e-01 2.58821458e-01
      1.04078710e-01 8.79202038e-02 1.38102055e-01 1.65737882e-01
      1.15881830e-01 2.36078233e-01 2.46861622e-01 1.80877849e-01
      1.65561393e-01 4.16506790e-02 1.86505392e-01 1.79272041e-01
      1.56082258e-01 1.03998408e-01 2.46861622e-01 2.46861622e-01
      1.54815227e-01 6.93609416e-02 6.09878637e-02 3.91644351e-02
      7.17310384e-02 1.37268096e-01 1.06587872e-01 1.92286998e-01
      2.46861622e-01 2.46861622e-01 1.33252203e-01 6.04019761e-02
      1.91436589e-01 1.40973136e-01 1.54752448e-01 1.98461726e-01
      2.46861622e-01 2.46861622e-01 1.51442811e-01 4.65781912e-02
      1.37352467e-01 2.34418869e-01 2.53863037e-01 1.75780684e-01
      1.02949321e-01 1.55353963e-01 1.55642897e-01 7.40179643e-02
      1.71550155e-01 1.92021742e-01 2.53863037e-01 2.53863037e-01
      2.11384401e-01 6.02042377e-02 7.53649101e-02 4.84504327e-02
      4.23607528e-02 1.56541154e-01 8.19468647e-02 1.79959998e-01
      1.34985507e-01 9.25543383e-02 1.86902955e-01 2.53863037e-01
      1.97757632e-01 7.46061802e-02 8.23543668e-02 1.48408055e-01
      2.28070825e-01 2.53863037e-01 2.53863037e-01 1.30952418e-01
      1.65261477e-01 9.36649069e-02 2.16032304e-02 1.12587370e-01
      1.06562383e-01 2.88840562e-01 2.88840562e-01 2.27243245e-01
      2.36392841e-02 2.63677724e-02 8.25449824e-03 9.49507765e-03
      3.98508869e-02 1.57279193e-01 2.88840562e-01 2.88840562e-01
      1.92497343e-01 8.57665241e-02 4.86497022e-02 1.81053709e-02
      1.40877338e-02 1.12348571e-01 1.11231044e-01 2.65495270e-01
      2.88840562e-01 2.86799610e-01 7.00530633e-02 4.96948175e-02
      1.43492511e-02 1.26199042e-02 6.65021092e-02 2.01035261e-01
      2.88840562e-01 2.88840562e-01 1.63393378e-01 5.92395067e-02
      5.16717322e-02 1.66924689e-02 2.87692789e-02 1.03807449e-01
      1.92486852e-01 2.46522069e-01 2.46522069e-01 2.28723183e-01
      1.44585818e-01 1.12858318e-01 5.94783239e-02 7.28088990e-02
      1.53294265e-01 1.11864395e-01 1.12435050e-01 1.14473633e-01
      5.28093651e-02 3.65733765e-02 1.02353759e-01 1.79308861e-01
      2.09525064e-01 1.49376974e-01 2.28570834e-01 2.46522069e-01
      2.46522069e-01 2.46522069e-01 9.19345468e-02 1.52744219e-01
      3.06547005e-02 6.50431663e-02 1.55759066e-01 2.46522069e-01
      2.46522069e-01 2.46522069e-01 1.70484096e-01 6.98541105e-02
      1.32880762e-01 3.48345824e-02 7.18825683e-02 1.82583690e-01
      1.18683100e-01 8.78243893e-02 8.98573548e-02 2.01231930e-02
      6.57383120e-03 2.90222485e-02 1.42750576e-01 2.69595474e-01
      2.57391244e-01 2.44685441e-01 8.74734744e-02 1.32349789e-01
      7.80851021e-02 3.75556834e-02 6.74028248e-02 2.36684114e-01
      2.69595474e-01 2.69595474e-01 2.69595474e-01 2.69595474e-01
      1.80414692e-01 4.32303548e-02 2.24785171e-02 2.88602710e-02
      2.22955663e-02 4.74248603e-02 1.62655473e-01 2.69595474e-01
      2.69595474e-01 2.28544325e-01 1.43429324e-01 5.51477522e-02
      6.93302751e-02 1.15045242e-01 8.82201865e-02 2.25838080e-01
      2.58162200e-01 5.12392074e-02 2.96961293e-02 1.52483862e-02
      8.42772983e-03 2.32997946e-02 1.41033575e-01 2.67458349e-01
      2.87978202e-01 2.48456523e-01 1.35910045e-02 1.26291225e-02
      9.38032009e-03 2.49943184e-03 1.84748042e-02 2.09446207e-01
      2.87978202e-01 2.87978202e-01 2.87978202e-01 5.29613085e-02
      7.14998832e-03 1.30456472e-02 7.49689061e-03 4.14943788e-03
      4.83691469e-02 2.87978202e-01 2.87978202e-01 2.87978202e-01
      6.42020628e-02 5.12623880e-03 3.39676184e-03 1.94096111e-03
      7.02203368e-04 4.15224805e-02 2.31385946e-01 2.87978202e-01
      1.83598951e-01 2.40705423e-02 9.75029171e-03 1.39848702e-02
      9.91224498e-03 1.58625189e-02 1.35332450e-01 2.84463227e-01
      2.84463227e-01 8.11313391e-02 5.16370982e-02 2.02628504e-02
      4.21173275e-02 2.52944287e-02 6.11027889e-02 2.84463227e-01
      2.84463227e-01 2.76224077e-01 2.84463227e-01 1.00102916e-01
      2.60446351e-02 1.45579465e-02 8.44765827e-03 1.03842402e-02
      6.33205175e-02 2.42298514e-01 2.84463227e-01 2.84463227e-01
      1.81708097e-01 5.94229288e-02 3.78487855e-02 2.45568957e-02
      3.70155908e-02 1.39648706e-01 2.66812265e-01 2.84463227e-01
      5.92751950e-02 6.17784560e-02 4.30879742e-02 1.55016720e-01
      8.40269178e-02 1.11321203e-01 2.38159612e-01 2.38159612e-01
      1.39623255e-01 8.23621303e-02 9.01216343e-02 8.04945230e-02
      2.17926934e-01 2.37946570e-01 1.83374926e-01 2.38159612e-01
      2.05784187e-01 8.41881260e-02 2.38159612e-01 1.47019476e-01
      3.31510305e-02 8.50871727e-02 5.68113700e-02 6.83519542e-02
      1.75560340e-01 2.38159612e-01 2.38159612e-01 2.38159612e-01
      1.41425952e-01 5.47111481e-02 1.97020292e-01 1.99718013e-01
      1.22435004e-01 1.45103529e-01 2.38159612e-01 2.38159612e-01
      9.90048274e-02 1.69057414e-01 9.32004303e-02 1.65901318e-01
      2.27344379e-01 1.94315359e-01 1.50299802e-01 8.29602480e-02
      8.26290250e-02 2.27344379e-01 2.27344379e-01 1.83480427e-01
      1.91700414e-01 1.65179864e-01 1.24326803e-01 9.33050439e-02
      3.92582938e-02 1.70637578e-01 1.96518987e-01 1.68829739e-01
      1.13479353e-01 2.27344379e-01 2.27344379e-01 8.81556123e-02
      8.71288776e-02 1.61802217e-01 2.24205658e-01 2.27344379e-01
      2.27344379e-01 1.73475131e-01 1.87133625e-01 1.25603795e-01
      4.70025204e-02 1.06954627e-01 1.29323781e-01 2.27344379e-01
      2.48059094e-01 2.64277250e-01 2.23912045e-01 1.61708966e-01
      7.91351721e-02 4.94603030e-02 3.77372764e-02 2.79132742e-02
      1.44633800e-01 2.64277250e-01 2.64277250e-01 2.64277250e-01
      1.50598124e-01 6.83325231e-02 4.21562009e-02 2.55438723e-02
      4.40403894e-02 1.12624399e-01 2.64277250e-01 2.64277250e-01
      1.58743501e-01 1.06375881e-01 4.79909256e-02 4.20277081e-02
      7.93996975e-02 1.01930499e-01 2.64277250e-01 2.64277250e-01
